{"version": "0.5.4", "metadata": {"date": {"year": 2025, "month": 11, "day": 4, "hour": 12, "minute": 24, "second": 20}, "loudness": -23.143701553344727, "gain": 0.01905930689995616, "name": null, "modeled_by": null, "gear_type": null, "gear_make": null, "gear_model": null, "tone_type": null, "input_level_dbu": null, "output_level_dbu": null, "training": {"settings": {"ignore_checks": true}, "data": {"latency": {"manual": -4, "calibration": {"algorithm_version": 1, "delays": [-4], "safety_factor": 0, "recommended": -4, "warnings": {"matches_lookahead": false, "disagreement_too_high": false}}}, "checks": {"version": 1, "passed": true}}, "validation_esr": 0.0013624691440812194}}, "architecture": "WaveNet", "config": {"layers": [{"input_size": 1, "condition_size": 1, "head_size": 8, "channels": 16, "kernel_size": 3, "dilations": [1, 2, 4, 8, 16, 32, 64, 128, 256, 512], "activation": "Tanh", "gated": false, "head_bias": false}, {"input_size": 16, "condition_size": 1, "head_size": 1, "channels": 8, "kernel_size": 3, "dilations": [1, 2, 4, 8, 16, 32, 64, 128, 256, 512], "activation": "Tanh", "gated": false, "head_bias": true}], "head": null, "head_scale": 0.02}, "weights": [0.0019530493300408125, 0.4335702955722809, -0.4874703884124756, -0.6556437611579895, -0.16806341707706451, 0.0706474632024765, 0.011752991005778313, 0.6514421701431274, 0.006649848539382219, 0.1531633585691452, -0.20166243612766266, -0.06859685480594635, -0.8199776411056519, -0.5132250189781189, -0.09457031637430191, -0.0006965241045691073, 0.04791496321558952, 0.06791838258504868, -0.032313600182533264, -0.0959559977054596, 0.027308838441967964, 0.04912180081009865, 0.012597762048244476, 0.13743922114372253, 0.05384945496916771, 0.05147890746593475, 0.1556003987789154, -0.06040778011083603, -0.05894872918725014, -0.013190647587180138, 0.011990685015916824, 0.10359852761030197, -0.11164183169603348, -0.11766529083251953, -0.03772701695561409, -0.05977749451994896, -0.15295137465000153, 0.0893365666270256, 0.03779464587569237, -0.0009690914885140955, 0.009376758709549904, -0.10420873016119003, 0.047623176127672195, -0.16055209934711456, -0.12295079231262207, -0.13351759314537048, 0.11713339388370514, 0.10578181594610214, -0.004039148800075054, 0.018880652263760567, 0.11089026927947998, 0.19977958500385284, 0.09339316189289093, 0.04595766216516495, 0.170157790184021, -0.04864811897277832, 0.051602236926555634, -0.03906634822487831, -0.06593718379735947, -0.04878130555152893, 0.13052387535572052, 0.07396204024553299, 0.00333044258877635, -0.05441770330071449, 0.02873236872255802, -0.05217895656824112, -0.17321783304214478, 0.010648396797478199, 0.054967962205410004, 0.21159639954566956, -0.07969648391008377, -0.016242071986198425, -0.006035519763827324, 0.14559686183929443, 0.15883183479309082, 0.05830195173621178, 0.04907580465078354, -0.0897662490606308, -0.05673999339342117, -0.10658859461545944, -0.1625560075044632, 0.20884104073047638, 0.07140836864709854, -0.0018342245602980256, -0.0923709124326706, -0.04909554496407509, -0.0595724917948246, 0.005613370332866907, 0.08190885931253433, -0.10205023735761642, 0.0034415542613714933, 0.05502359941601753, 0.07695289701223373, 0.12971894443035126, -0.12365646660327911, -0.06199757009744644, -0.006648048292845488, 0.04423098638653755, -0.08580976724624634, -0.15528270602226257, 0.16155140101909637, 0.13252507150173187, -0.13260988891124725, -0.009678823873400688, -0.10430329293012619, -0.07061441242694855, -0.0836150273680687, -0.07622396945953369, -0.08043556660413742, -0.1397673338651657, 0.19095595180988312, -0.0893004909157753, -0.0444522462785244, 0.17418140172958374, 0.10621025413274765, -0.11073143780231476, -0.015144110657274723, -0.13014154136180878, -0.00012805679580196738, 0.009309508837759495, 0.18131892383098602, -0.0057115498930215836, -0.09131891280412674, 0.2037154585123062, -0.14759103953838348, -0.1025436520576477, 0.09339836984872818, -0.07190020382404327, -0.03853210061788559, -0.25961679220199585, -0.06948524713516235, 0.03587956726551056, -0.10652687400579453, 0.0054300143383443356, 0.12621749937534332, -0.15197288990020752, 0.020792223513126373, 0.04097553715109825, 0.16621264815330505, 0.09502564370632172, 0.15007846057415009, -0.0518203005194664, 0.13339634239673615, -0.02751264162361622, 0.01472839992493391, -0.06833858788013458, 0.08717771619558334, 0.1375046819448471, -0.08622223138809204, -0.13337291777133942, 0.0003113792627118528, -0.13650958240032196, -0.050047069787979126, 0.21376411616802216, 0.06488053500652313, -0.1581757366657257, 0.2185087502002716, -0.09325188398361206, 0.0849706307053566, -0.19951732456684113, -0.02069477178156376, -0.0752749815583229, -0.14104148745536804, -0.15090474486351013, -0.03450603038072586, 0.11565548926591873, -0.03247120603919029, 0.06740112602710724, -0.235963836312294, 0.019433338195085526, 0.1391085982322693, -0.17152723670005798, 0.1500346064567566, 0.060795631259679794, -0.23877041041851044, 0.0773606076836586, -0.02213319018483162, 0.05303002893924713, -0.005890263710170984, -0.08403423428535461, -0.09766174107789993, -0.05814473330974579, 0.08896998316049576, 0.1552121639251709, 0.04620503634214401, 0.0013399629388004541, -0.1332302689552307, -0.05086761340498924, -0.12677063047885895, 0.19909384846687317, 0.13517840206623077, 0.11009946465492249, -0.2234518826007843, 0.025836290791630745, -0.09131884574890137, -0.20387126505374908, -0.05488739162683487, 0.06297852098941803, -0.19929292798042297, 0.025644101202487946, 0.017826147377490997, -0.019318019971251488, -0.08476904034614563, -0.09163056313991547, -0.19211769104003906, 0.20744168758392334, 0.030042031779885292, 0.07572577893733978, 0.050340667366981506, 0.04693144932389259, -0.01927601732313633, -0.04271410405635834, -0.03751784935593605, -0.011578787118196487, 0.022184960544109344, 0.07806678861379623, -0.12563051283359528, -0.058776624500751495, 0.17220111191272736, -0.1358794867992401, 0.0015648291446268559, 0.19445712864398956, 0.032189834862947464, -9.783424320630729e-05, -0.1711014360189438, 0.10402203351259232, -0.1092027798295021, -0.012096998281776905, -0.05833769962191582, -0.03703463450074196, -0.05561189725995064, 0.1402520388364792, 0.009038953110575676, 0.11697538942098618, 0.0393989235162735, -0.09957269579172134, 0.016433797776699066, -0.07096074521541595, -0.05321823060512543, 0.09305824339389801, 0.017952032387256622, 0.11285869032144547, -0.00027729160501621664, -0.02886207588016987, 0.09125065058469772, -0.08223908394575119, 0.0852113664150238, -0.10227055847644806, 0.05734923481941223, -0.04364057257771492, -0.05815088376402855, 0.07342574000358582, 0.0938471108675003, -0.028948858380317688, -0.2294795960187912, 0.03280250355601311, -0.11677820235490799, 0.03644486516714096, -0.030342375859618187, -0.07722911238670349, 0.0021205295342952013, -0.0462423674762249, 0.048402976244688034, 0.02324073202908039, 0.16972897946834564, -0.07011472433805466, -0.12605373561382294, 0.17067232728004456, 0.10159285366535187, -0.040922097861766815, 0.05325205624103546, -0.05907792970538139, -0.0624401792883873, -0.10065251588821411, -0.07702750712633133, -0.20600420236587524, 0.14377188682556152, -0.07296445965766907, 0.07068269699811935, -0.08820200711488724, 0.009867128916084766, -0.1088077500462532, -0.007691610604524612, 0.12733888626098633, 0.10097549855709076, -0.01498718373477459, -0.061204694211483, -0.03869954124093056, 0.10375481843948364, -0.016955167055130005, -0.16414837539196014, 0.18159595131874084, 0.023502130061388016, -0.09012032300233841, 0.09555597603321075, -0.1112886518239975, 0.014901665039360523, 0.01925787888467312, 0.03826715797185898, -0.12758871912956238, 0.04767744243144989, 0.09671009331941605, -0.03731326013803482, -0.05240744352340698, 0.05961676687002182, -0.06982044130563736, -0.01143027562648058, 0.04865530505776405, 0.09656853973865509, -0.14270322024822235, -0.11554396897554398, -0.06575118750333786, 0.16307172179222107, -0.04264398291707039, 0.01575484685599804, 0.21893668174743652, -0.06233050301671028, -0.03499235957860947, 0.1772967427968979, -0.011240698397159576, 0.04261409863829613, -0.11237312853336334, -0.1310218870639801, 0.00686995591968298, 0.07486708462238312, 0.11898529529571533, 0.12582992017269135, -0.10539624840021133, 0.10965346544981003, -0.030715685337781906, 0.0020687824580818415, -0.14329007267951965, 0.17571039497852325, -0.03964263200759888, -0.08066659420728683, 0.02178705483675003, 0.24073246121406555, 0.16611284017562866, 0.09611010551452637, 0.23914311826229095, -0.023237410932779312, -0.09155828505754471, 0.24127197265625, 0.09029226750135422, -0.12554362416267395, 0.2514345049858093, 0.07735991477966309, 0.04105144366621971, 0.025533081963658333, 0.07067428529262543, -0.000547186762560159, 0.19799548387527466, -0.028517212718725204, 0.04502519592642784, 0.059547390788793564, 0.08347832411527634, 0.00781700387597084, 0.14098651707172394, -0.13191823661327362, -0.027858179062604904, -0.17592135071754456, -0.16741973161697388, -0.1727573126554489, 0.03953573480248451, 0.05937792360782623, 0.0797472670674324, 0.05171585828065872, -0.11767292767763138, -0.05136895924806595, 0.028363272547721863, -0.15645989775657654, 0.05920974165201187, -0.12872199714183807, -0.046584561467170715, -0.08134955167770386, -0.009497081860899925, 0.10584006458520889, 0.13143102824687958, 0.09935346245765686, 0.12629976868629456, 0.17657020688056946, 0.024456223472952843, 0.04775615781545639, 0.0764693021774292, -0.013441018760204315, 0.13043837249279022, 0.02608477883040905, 0.03528850898146629, -0.07578251510858536, 0.011118181981146336, -0.05795019865036011, -0.0597895123064518, -0.13737598061561584, -0.15525700151920319, -0.1334182322025299, 0.04330474138259888, 0.03686046227812767, 0.1491537243127823, -0.061098385602235794, -0.16486991941928864, 0.0976528748869896, 0.005298991221934557, -0.050188466906547546, 0.18305544555187225, 0.09085658937692642, -0.1785968840122223, 0.07829685509204865, 0.07474195212125778, 0.006854242645204067, 0.02738017775118351, -0.11355231702327728, 0.04458937793970108, 0.07629459351301193, -0.024415401741862297, -0.03521972522139549, -0.011060275137424469, -0.015371464192867279, -0.10593895614147186, -0.022344861179590225, 0.12348392605781555, 0.026412056758999825, -0.03699558973312378, 0.040908101946115494, -0.0002138092095265165, 0.0539390966296196, -0.09639033675193787, 0.06928981840610504, -0.06440410017967224, -0.03624223545193672, -0.02544458955526352, -0.14569693803787231, 0.024835944175720215, 0.2008751630783081, -0.031163062900304794, -0.1224406361579895, 0.027796870097517967, -0.02221001125872135, -0.14321129024028778, 0.13892361521720886, -0.18499183654785156, -0.16993780434131622, -0.07351718097925186, -0.07979758083820343, 0.0657539889216423, -0.06911606341600418, 0.03022676892578602, -0.022035682573914528, 0.15934905409812927, 0.03335771709680557, -0.1366182416677475, 0.18103095889091492, 0.0836271420121193, 0.191836878657341, 0.024429360404610634, -0.11090566962957382, 0.06898338347673416, 0.04699421674013138, 0.059845276176929474, -0.1640298217535019, 0.004723123274743557, -0.14857780933380127, -0.10175590217113495, 0.07566773146390915, -0.11569905281066895, 0.08603264391422272, 0.0182853601872921, -0.03162720426917076, -0.18926802277565002, 0.06445065885782242, -0.03723230957984924, 0.11330999433994293, 0.09399249404668808, 0.09368658065795898, -0.018264075741171837, 0.11762718111276627, -0.14218035340309143, -0.08138441294431686, 0.010821889154613018, -0.08164887875318527, 0.024880019947886467, -0.04495065659284592, -0.07017696648836136, -0.16041310131549835, 0.13077493011951447, -0.023190684616565704, 0.0612773634493351, 0.13571234047412872, 0.07083560526371002, -0.04332869127392769, 0.0014307821402326226, -0.041387468576431274, -0.0287571232765913, 0.11757559329271317, -0.06444354355335236, -0.015875326469540596, 0.10145430266857147, -0.10844572633504868, -0.03128243610262871, -0.039137087762355804, 0.17475010454654694, -0.09218113869428635, 0.15338504314422607, 0.021331025287508965, 0.040376581251621246, 0.06306499987840652, -0.12396090477705002, 0.004275669809430838, 0.005197708494961262, -0.08216442167758942, 0.011119906790554523, -0.09278155863285065, 0.11830059438943863, -0.007221627049148083, -0.015573729760944843, -0.07215949147939682, -0.04621504619717598, 0.17773263156414032, 0.057183582335710526, 0.12675921618938446, 0.03710890933871269, 0.026786644011735916, -0.0012916416162624955, 0.037952784448862076, -0.06849416345357895, -0.05001053959131241, -0.031622011214494705, 0.09708560258150101, -0.07621193677186966, -0.042660195380449295, -0.10205478221178055, 0.11212427914142609, 0.0987243577837944, -0.154790997505188, -0.15996721386909485, -0.16313304007053375, -0.04673880338668823, -0.07799351960420609, -0.14758414030075073, -0.0950964093208313, -0.013910392299294472, -0.12010560929775238, -0.09416303038597107, 0.047743383795022964, 0.07327087968587875, 0.0674237310886383, 0.15746016800403595, -0.004683636128902435, -0.046554356813430786, -0.06376958638429642, 0.17276856303215027, -0.08653805404901505, -0.12982586026191711, 0.11062957346439362, -0.03887183964252472, 0.03849302604794502, -0.04602582007646561, 0.01996748521924019, -0.021198784932494164, 0.06289467215538025, -0.04473322257399559, -0.1573798656463623, -0.06475929915904999, -0.04925065487623215, 0.08334163576364517, -0.10340715199708939, 0.08323372900485992, -0.04275186359882355, 0.0063015166670084, 0.15131837129592896, 0.10897188633680344, 0.09591306000947952, 0.029804833233356476, -0.05994796380400658, -0.06798414885997772, 0.04282296821475029, 0.1351185142993927, -0.07805372774600983, -0.07974129915237427, 0.07975725084543228, 0.11036763340234756, 0.011496778577566147, -0.1092785969376564, -0.16383594274520874, 0.08759535849094391, 0.00029861045186407864, -0.1053619235754013, 0.07795614004135132, 0.06366612017154694, 0.09284396469593048, 0.23952944576740265, -0.29528629779815674, 0.0537806861102581, -0.1490841805934906, 0.17911383509635925, 0.08906891942024231, 0.030633023008704185, -0.0984993577003479, 0.11038656532764435, 0.1626971960067749, 0.1012076586484909, -0.10506857931613922, -0.02342599257826805, -0.12488842755556107, 0.15714383125305176, -0.03720016032457352, -0.09171359241008759, 0.09481505304574966, -0.09460648894309998, -0.04591532424092293, -0.043062079697847366, 0.038841523230075836, 0.023379651829600334, -0.11768757551908493, -0.09590864181518555, 0.07885448634624481, 0.10302102565765381, 0.06587548553943634, 0.037635598331689835, 0.11549116671085358, -0.012488438747823238, -0.044187720865011215, 0.10794882476329803, 0.06768753379583359, -0.16583092510700226, -0.0139920087531209, -0.06563427299261093, 0.10686396062374115, -0.0009306812426075339, -0.10009057819843292, -0.036050945520401, 0.11154168099164963, 0.06751441210508347, 0.01966865360736847, 0.03423945605754852, 0.07357379049062729, -0.06103091314435005, -0.036116182804107666, -0.05273275822401047, -0.1100931242108345, 0.00317819369956851, -0.11288286745548248, -0.004420086741447449, 0.02179734595119953, -0.0009810173651203513, -0.16409175097942352, 0.2511860728263855, -0.06247570738196373, 0.19057323038578033, -0.21686309576034546, -0.020420657470822334, 0.1488639861345291, -0.16972370445728302, 0.1301833987236023, -0.033437009900808334, -0.23218309879302979, -0.06498582661151886, -0.03528420999646187, 0.25320661067962646, -0.027461860328912735, 0.12171290069818497, 0.07586174458265305, -0.044578924775123596, 0.033959973603487015, 0.0009243058739230037, -0.004021371249109507, 0.11996579170227051, -0.1342993676662445, 0.10722923278808594, -0.10526838153600693, 0.2348015010356903, -0.13422293961048126, 0.0447709895670414, -0.14620721340179443, 0.04914817959070206, 0.11724422872066498, -0.010692043229937553, -0.00713921245187521, 0.06645166128873825, -0.011882108636200428, -0.024249592795968056, 0.19601279497146606, -0.20556224882602692, -0.0013998417416587472, 0.055929139256477356, -0.04284592345356941, 0.04993065819144249, 0.16330085694789886, -0.481702595949173, 0.10120889544487, -0.028885630890727043, 0.07334031909704208, -0.11508766561746597, 0.15759773552417755, 0.07332989573478699, 0.02905852347612381, -0.2026340812444687, 0.15848121047019958, -0.08300570398569107, -0.03227865323424339, 0.08316352963447571, -0.04121287539601326, -0.010140920989215374, -0.0635790228843689, -0.0025684544816613197, -0.03657597675919533, -0.08988961577415466, -0.04509503021836281, 0.08540479838848114, -0.02681548520922661, 0.06769998371601105, 0.04780105501413345, -0.13221707940101624, -0.07247930020093918, -0.13705134391784668, 0.24726440012454987, -0.06832318753004074, 0.06558763980865479, -0.03261025995016098, 0.13047464191913605, 0.06257326155900955, 0.18968532979488373, -0.07489952445030212, -0.08163673430681229, -0.007955432869493961, -0.05876775458455086, -0.03221653401851654, 0.197483628988266, -0.09205953031778336, 0.022344045341014862, -0.012411275878548622, -0.00627403799444437, 0.05254824459552765, 0.033475831151008606, -0.14074623584747314, 0.07831014692783356, 0.07712981849908829, -0.054464999586343765, -0.13448283076286316, 0.14281070232391357, -0.08515182137489319, -0.09107668697834015, -0.03552326187491417, 0.1015729233622551, -0.06174054741859436, 0.11158010363578796, 0.10855713486671448, 0.07351499050855637, -0.031590234488248825, -0.03540337458252907, -0.07401146739721298, -0.07986042648553848, 0.03005639836192131, 0.13865512609481812, 0.08644048869609833, 0.09635784476995468, -0.052188824862241745, 0.011164906434714794, 0.12638439238071442, -0.0376814566552639, -0.14392656087875366, -0.016012219712138176, 0.026727721095085144, -0.141753688454628, 0.1545446813106537, 0.07980109006166458, -0.14056657254695892, -0.05565778166055679, 0.09883827716112137, -0.07149672508239746, -0.06788283586502075, 0.01490885391831398, -0.08522933721542358, 0.06325802206993103, 0.053393032401800156, 0.1335810422897339, -0.10783295333385468, 0.12154796719551086, -0.04328254982829094, 0.12355830520391464, -0.1638045758008957, -0.0942746102809906, 0.09120529890060425, -0.05194667726755142, 0.26718151569366455, -0.018563656136393547, -0.03749114274978638, -0.02141222544014454, -0.062116991728544235, 0.013327308930456638, 0.022483937442302704, -0.0006620264030061662, -0.011288639158010483, 0.02228962443768978, 0.0533258318901062, -0.016352763399481773, 0.09368553757667542, -0.09327436983585358, 0.009084115736186504, -0.02133413776755333, -0.06555642932653427, 0.3667009472846985, -0.3594551980495453, 0.6635859608650208, -0.5893539786338806, 0.018451809883117676, 0.7721908688545227, 0.8736336827278137, -0.49975213408470154, 0.11363460123538971, 0.07449782639741898, -0.41076627373695374, -0.31032946705818176, 0.2514285147190094, -0.5869249701499939, 0.10646475851535797, 0.3854568898677826, -0.10871163755655289, 0.14958511292934418, -0.04819723963737488, 0.10420791059732437, 0.22618627548217773, -0.00020197631965857, 0.10345258563756943, -0.0888821929693222, -0.029362397268414497, -0.04935551807284355, -0.0466354675590992, -0.0634046345949173, 0.06849279254674911, -0.008714470081031322, 0.1296839714050293, -0.014893234707415104, -0.003128801006823778, 0.01803632453083992, -0.12070027738809586, 0.012156718410551548, 0.015897002071142197, -0.13170064985752106, -0.07219133526086807, 0.056325383484363556, 0.005191073752939701, 0.19652502238750458, -0.05890965089201927, 0.028204267844557762, 0.055437300354242325, -0.09489987790584564, 0.10740445554256439, 0.05405685678124428, 0.17472146451473236, -0.11892727017402649, 0.2584850788116455, 0.27096766233444214, 0.025977743789553642, 0.19219481945037842, 0.32286307215690613, -0.33695709705352783, -0.04095368832349777, -0.05021152272820473, 0.14886170625686646, -0.26990243792533875, 0.4390016198158264, 0.2067181020975113, -0.10659148544073105, 0.20761758089065552, 0.24420489370822906, -0.11990050226449966, 0.0011194542748853564, -0.11758594214916229, 0.007050307467579842, 0.14127619564533234, 0.04382346197962761, -0.09032340347766876, -0.229117751121521, 0.014654798433184624, -0.07579230517148972, -0.08601026237010956, 0.2044602930545807, 0.24627991020679474, -0.2912018895149231, -0.03632022812962532, -0.2297658771276474, -0.29488393664360046, -0.21369017660617828, 0.14093159139156342, 0.09836610406637192, 0.09101855754852295, 0.1533811241388321, -0.06627070903778076, 0.09040156751871109, 0.2986851930618286, -0.04489841312170029, 0.3284337520599365, -0.07269737869501114, 0.1545436829328537, 0.04163997992873192, 0.0578189417719841, -0.24114497005939484, -0.0010736914118751884, 0.09511516988277435, 0.06113599240779877, 0.16293571889400482, 0.17016920447349548, 0.2397245466709137, 0.13074681162834167, 0.17585401237010956, -0.01277910452336073, -0.13629716634750366, -0.07342985272407532, -0.06937141716480255, -0.15269845724105835, 0.21043483912944794, 0.04928603023290634, 0.1732320636510849, 0.12249837070703506, 0.21544337272644043, 0.16356925666332245, -0.09975986927747726, -0.053619712591171265, 0.07091571390628815, -0.0748443529009819, 0.06468810141086578, -0.30821919441223145, -0.2528962790966034, -0.014106924645602703, 0.2922891080379486, -0.07614647597074509, 0.0383317694067955, -0.05858298018574715, 0.11791007965803146, 0.0813412070274353, 0.23902511596679688, -0.2601735293865204, -0.3118939697742462, 0.09085261821746826, 0.23088859021663666, 0.1515413075685501, 0.18294888734817505, -0.17492680251598358, 0.24307292699813843, -0.15648993849754333, 0.010633941739797592, -0.20858342945575714, 0.04583180695772171, 0.034586429595947266, 0.0014795500319451094, -0.033831093460321426, -0.22652506828308105, -0.22392404079437256, 0.15743112564086914, -0.04601427912712097, -0.15938140451908112, -0.10849510878324509, -0.2136305868625641, -0.23334906995296478, 0.04676024615764618, 0.009825648739933968, 0.035109687596559525, -0.10095097124576569, -0.03242458403110504, 0.022123578935861588, -0.1749124675989151, 0.0906103253364563, 0.16236558556556702, -0.11894606053829193, -0.23530323803424835, -0.08778010308742523, 0.1321793645620346, -0.1816919893026352, -0.013244987465441227, 0.12332398444414139, 0.15957506000995636, 0.12635961174964905, 0.1305599957704544, 0.24001286923885345, -0.18398231267929077, 0.008762513287365437, 0.16330553591251373, 0.23852217197418213, -0.26181793212890625, 0.136118084192276, -0.021039601415395737, -0.18652822077274323, 0.023715566843748093, -0.08758126944303513, 0.018131809309124947, -0.20765575766563416, -0.2637442648410797, -0.12194597721099854, -0.07198463380336761, 0.17604687809944153, -0.043149374425411224, 0.1972033828496933, 0.07966378331184387, -0.11504241824150085, 0.17597579956054688, -0.02968069724738598, 0.07886472344398499, 0.003562611760571599, 0.000652840593829751, -0.012339509092271328, -0.009292393922805786, -0.20357970893383026, -0.05182745307683945, -0.2739485800266266, -0.009489653632044792, 0.13743872940540314, -0.19129164516925812, -0.0896628201007843, 0.12152009457349777, -0.0973552018404007, 0.13442504405975342, 0.14827798306941986, 0.20292645692825317, 0.011905732564628124, 0.03884171321988106, 0.06076273322105408, 0.1565723419189453, -0.05172371864318848, -0.1228877529501915, -0.07351783663034439, 0.26107707619667053, -0.10888154059648514, -0.304801881313324, 0.23123864829540253, 0.10581446439027786, -0.2725166976451874, -0.015523048117756844, 0.14937461912631989, -0.02586764469742775, 0.286211222410202, 0.2881503701210022, -0.057698678225278854, -0.03674778342247009, -0.040690064430236816, -0.04369911924004555, -0.014437698759138584, 0.00727124372497201, -0.010214016772806644, -0.30743473768234253, 0.14713045954704285, -0.12661366164684296, 0.18542635440826416, 0.010141362436115742, -0.13993710279464722, 0.09625229984521866, 0.1574426293373108, 0.18699491024017334, 0.12098021060228348, -0.20816440880298615, 0.15864071249961853, -0.0141129270195961, -0.14049780368804932, 0.23481027781963348, 0.12841886281967163, -0.1833205223083496, -0.0023855941835790873, 0.13814863562583923, 0.060707513242959976, 0.09964482486248016, -0.10609036684036255, -0.0979306623339653, 0.1530240774154663, 0.029364805668592453, 0.21702644228935242, -0.07113426178693771, -0.17417289316654205, -0.06888443976640701, -0.14598384499549866, 0.0058022066950798035, 0.208251491189003, -0.007096340414136648, -0.022561075165867805, 0.12182782590389252, -0.06809881329536438, 0.1448093205690384, -0.11858241260051727, -0.06833181530237198, -0.055219922214746475, 0.061518050730228424, -0.023910630494356155, 0.05719059705734253, -0.11812441051006317, 0.07379987835884094, 0.02872268110513687, 0.051013052463531494, 0.16097453236579895, 0.04923081398010254, 0.005606264341622591, 0.017381815239787102, -0.07075843960046768, 0.02556060627102852, 0.03764260187745094, -0.06024570018053055, 0.15711092948913574, 0.043617185205221176, -0.04885157197713852, 0.047508109360933304, -0.1116473525762558, -0.05277733877301216, -0.05748486891388893, -0.0028968320693820715, -0.059309668838977814, 0.019063163548707962, 0.13342614471912384, -0.029703302308917046, -0.0029253135435283184, -0.019773930311203003, -0.029281947761774063, 0.09752671420574188, 0.024456720799207687, 0.012472707778215408, -0.1297818422317505, -0.08232776820659637, 0.04058009013533592, -0.0038693170063197613, -0.15454009175300598, 0.017566455528140068, -0.11369246244430542, -0.14089539647102356, -0.11910799890756607, 0.06940247863531113, -0.13160918653011322, -0.1915249079465866, 0.08383432030677795, -0.05226375162601471, -0.014663874171674252, -0.13736660778522491, -0.02806779369711876, 0.07991646230220795, -0.13248257339000702, -0.046837881207466125, 0.0587335079908371, 0.09193409234285355, 0.029559409245848656, -0.0768318921327591, -0.1555953025817871, 0.07997743785381317, -0.005588790401816368, 0.06311333179473877, -0.2837686240673065, -0.03182031214237213, -0.06823550164699554, -0.008114892058074474, -0.04656217247247696, 0.0798499584197998, -0.07221115380525589, 0.01987140066921711, -0.09115499258041382, 0.08400384336709976, -0.07712650299072266, 0.16358116269111633, -0.2691288888454437, -0.12903644144535065, 0.03724900633096695, 0.1337539553642273, -0.09760443866252899, -0.03237493336200714, -0.029903432354331017, -0.05674152076244354, 0.040994592010974884, 0.0296064093708992, -0.04184383526444435, -0.17799639701843262, -0.021120397374033928, 0.05978688597679138, -0.13342343270778656, 0.18482346832752228, 0.036469172686338425, -0.08957615494728088, -0.08629899471998215, -0.05592453479766846, 0.02538948319852352, 0.04433063045144081, -0.10279212146997452, 0.05617084354162216, 0.06000525504350662, 0.03762701898813248, 0.0033403688576072454, 0.06892497092485428, -0.0016881226329132915, -0.07231993228197098, -0.1963827908039093, 0.055074140429496765, -0.03536850959062576, -0.06304435431957245, -0.12662585079669952, 0.06817333400249481, 0.14907853305339813, 0.1647345870733261, -0.16088269650936127, 0.02701270394027233, 0.026999494060873985, 0.10303093492984772, 0.1065923348069191, -0.0663326159119606, -0.029183538630604744, 0.07767314463853836, -0.048330020159482956, 0.042692139744758606, -0.0021024758461862803, 0.14825834333896637, 0.043609194457530975, 0.13644319772720337, -0.06320371478796005, -0.17942416667938232, -0.027303412556648254, 0.007597940508276224, 0.03979272022843361, -0.04335374757647514, -0.1722681224346161, 0.08471014350652695, -0.02980412170290947, 0.15518981218338013, -0.250301718711853, -0.17553935945034027, -0.2504027187824249, 0.16181303560733795, 0.12095755338668823, -0.1505381166934967, 0.12546314299106598, 0.1125807985663414, -0.03341592848300934, 0.10360746085643768, 0.01308573130518198, -0.05354801192879677, 0.2295636534690857, -0.10707388818264008, -0.025348786264657974, 0.12384584546089172, -0.02632155828177929, 0.10047754645347595, 0.10829591751098633, -0.1751217544078827, -0.04812851920723915, 0.03521796315908432, 0.001951352576725185, 0.060394641011953354, 0.1275262087583542, -0.039413608610630035, -0.0705563873052597, -0.4248737692832947, 0.05213535949587822, 0.1329084038734436, -0.1393546164035797, -0.060816314071416855, -0.06608675420284271, -0.13746459782123566, 0.07247152924537659, 0.10380898416042328, -0.029349708929657936, -0.15153485536575317, 0.1464429795742035, 0.07680509239435196, -0.01059576217085123, 0.03411847725510597, 0.11753799021244049, -0.026463132351636887, -0.1899758279323578, 0.12662918865680695, 0.20654116570949554, -0.017851056531071663, 0.030276117846369743, -0.03223196044564247, -0.0810738280415535, 0.08211608231067657, 0.04731253907084465, 0.1370629221200943, 0.1725812554359436, 0.025003165006637573, 0.13436174392700195, -0.19669398665428162, -0.014877192676067352, -0.1828993260860443, -0.26752904057502747, -0.30046552419662476, -0.10754723101854324, -0.05314125865697861, 0.2424030601978302, 0.08819811046123505, 0.3208414614200592, -0.1221373975276947, -0.052811723202466965, 0.06792055070400238, 0.027065113186836243, 0.11894078552722931, -0.012208505533635616, 0.09933283179998398, 0.13827413320541382, 0.04165806993842125, -0.10880407691001892, 0.05701972544193268, 0.1261845827102661, 0.017953794449567795, -0.009064135141670704, -0.1369909793138504, -0.04842367768287659, 0.15664361417293549, -0.10249511897563934, 0.1435602307319641, -0.033216942101716995, -0.016893433406949043, 0.038981903344392776, 0.18387676775455475, 0.07462824136018753, 0.016995776444673538, -0.02388714998960495, 0.042423926293849945, -0.05563032254576683, -0.05173107609152794, -0.07305233180522919, 0.05226313695311546, -0.15078583359718323, 0.028664927929639816, -0.10535843670368195, -0.03567913547158241, 0.15611612796783447, -0.06709041446447372, -0.14885279536247253, 0.1908586174249649, 0.09323593229055405, 0.005667486228048801, 0.1273096352815628, 0.07648415863513947, -0.09044647961854935, -0.024500707164406776, 0.037906888872385025, -0.03948863595724106, -0.07542286813259125, -0.09675487875938416, -0.07180233299732208, -0.10586964339017868, -0.13295358419418335, 0.09080665558576584, 0.23121830821037292, -0.13487014174461365, -0.06417087465524673, -0.1099337488412857, -0.03816034644842148, 0.0554499551653862, -0.03602162376046181, -0.056366391479969025, 0.0006878816056996584, -0.047800470143556595, 0.10393784195184708, -0.1108241081237793, 0.03198463097214699, 0.12088370323181152, -0.1062014102935791, 0.025622021406888962, 0.10564450174570084, -0.12034380435943604, 0.26093894243240356, 0.13008619844913483, 0.1638605147600174, -0.13271330296993256, 0.07097749412059784, -0.12085366994142532, 0.1635832041501999, 0.08397817611694336, 0.10410632938146591, 0.008862903341650963, 0.07760247588157654, -0.06114538013935089, 0.049201540648937225, 0.02008788101375103, 0.08831197768449783, -0.1607949584722519, -0.023193810135126114, -0.11057654768228531, -0.035473551601171494, -0.10122235119342804, 0.07606389373540878, -0.04144035652279854, -0.06859273463487625, -0.002487679710611701, 0.07609103620052338, 0.015700343996286392, 0.04763597249984741, 0.026578199118375778, 0.045538485050201416, 0.19608378410339355, -0.013388548977673054, -0.002921004081144929, -0.08669347316026688, 0.09315924346446991, 0.11782814562320709, -0.0649866983294487, -0.06988035142421722, -0.03926286846399307, 0.031385354697704315, -0.12669555842876434, 0.18548700213432312, 0.17213153839111328, 0.12321927398443222, 0.1329958140850067, 0.0395459309220314, 0.10450345277786255, -0.02337503246963024, 0.18249574303627014, 0.00582119170576334, -0.041487712413072586, -0.1714986115694046, -0.07583875209093094, 0.11759542673826218, 0.1373443901538849, -0.008768221363425255, 0.045612458139657974, -0.1628856062889099, 0.06727734953165054, -0.040896665304899216, -0.03177639842033386, 0.021509403362870216, 0.11285381764173508, 0.034740548580884933, 0.09476152807474136, 0.030923858284950256, 0.00984882190823555, -0.13087178766727448, -0.09261271357536316, -0.07415792346000671, -0.02416505292057991, -0.148509219288826, -0.005504155531525612, 0.009847586043179035, -0.14982005953788757, 0.07836240530014038, 0.1774139255285263, 0.03876514732837677, -0.07237321138381958, -0.06504333764314651, -0.08000750094652176, 0.03335699439048767, 0.12486835569143295, -0.04881519079208374, -0.06616665422916412, -0.0773097425699234, 0.054707251489162445, -0.1723606139421463, -0.24585524201393127, 0.19101059436798096, -0.04912267625331879, -0.07776319235563278, -0.04949338361620903, -0.04240977019071579, 0.04439862072467804, 0.08651111274957657, -0.021733345463871956, -0.009861128404736519, -0.07381288707256317, -0.12595848739147186, 0.2224782109260559, 0.15023083984851837, 0.09904994815587997, -0.0674009919166565, 0.018167586997151375, -0.16956086456775665, 0.03163570165634155, 0.01485481671988964, -0.0690690279006958, 0.15941688418388367, -0.05132078751921654, -0.017107481136918068, -0.08146554231643677, -0.0880974531173706, 0.005405642092227936, -0.12247256189584732, 0.0740794762969017, 0.04071991145610809, 0.17627280950546265, -0.016476662829518318, 0.023319050669670105, 0.021804487332701683, 0.14461132884025574, 0.18333128094673157, -0.12209783494472504, -0.09617540240287781, -0.020123926922678947, -0.2505579888820648, 0.09044080972671509, 0.023405475541949272, 0.2586081624031067, 0.07736565917730331, -0.0341232605278492, 0.05124968662858009, 0.12416763603687286, 0.02351892739534378, 0.1446160227060318, -0.06611648947000504, 0.02510874532163143, -0.05115891993045807, 0.24414272606372833, 0.06810129433870316, -0.10067088156938553, -0.1259979009628296, -0.05774000659584999, -0.07187680155038834, -0.032006748020648956, -0.04034440964460373, 0.11669954657554626, 0.05153398960828781, 0.09538351744413376, -0.18276041746139526, 0.039502695202827454, 0.00903789047151804, -0.08771767467260361, -0.10818574577569962, 0.022756244987249374, 0.0832013413310051, -0.057548996061086655, -0.001539690769277513, 0.2734168469905853, -0.04002239927649498, -0.15285715460777283, -0.030535202473402023, 0.1435554027557373, -0.07155122607946396, 0.04503260552883148, -0.1250043511390686, 0.10629937052726746, -0.26883700489997864, 0.2117937058210373, 0.03561040386557579, 0.005736688617616892, -0.11314428597688675, 0.06369214504957199, 0.18292392790317535, -0.0382956936955452, 0.015086060389876366, -0.08080960065126419, -0.03412872552871704, 0.08660664409399033, -0.16612473130226135, -0.08329123258590698, -0.04004155844449997, -0.20627917349338531, -0.08229465782642365, -0.010997997596859932, 0.09661336243152618, 0.37549176812171936, 0.08573707193136215, 0.25974395871162415, -0.15350960195064545, 0.05162417143583298, 0.27036958932876587, 0.06750321388244629, 0.07493007183074951, -0.03590792044997215, -0.17525438964366913, -0.060122471302747726, 0.08617007732391357, 0.011894438415765762, 0.032368358224630356, 0.1021929532289505, 0.01571664586663246, -0.017835715785622597, 0.030281158164143562, -0.023769473657011986, -0.08723202347755432, -0.28834572434425354, -0.07777317613363266, 0.08531171083450317, -0.12232127040624619, 0.07817798107862473, -0.11544004082679749, 0.0617913194000721, -0.16258229315280914, -0.12124519795179367, 0.2309197634458542, -0.0832640752196312, 0.11900781095027924, -0.03101535141468048, -0.024329492822289467, 0.010590119287371635, 0.022420965135097504, 0.0011339826742187142, 0.04518900066614151, 0.1499929428100586, -0.19744153320789337, -0.02143106423318386, -0.056195102632045746, -0.1105225682258606, -0.06439720839262009, -0.2565368711948395, 0.10470472276210785, 0.022821160033345222, -0.12445370852947235, -0.09491067379713058, 0.033216629177331924, 0.3033742904663086, 0.08605888485908508, 0.009699385613203049, 0.13458983600139618, -0.09098871052265167, 0.03683653101325035, 0.2573765218257904, -0.08169592171907425, -0.21640731394290924, -0.0403556190431118, -0.017030125483870506, -0.026929236948490143, 0.10805974155664444, 0.06201459467411041, 0.05412665009498596, 0.05982155725359917, -0.0640169233083725, 0.051192037761211395, -0.11627116799354553, 0.06019536405801773, 0.00035467115230858326, 0.019344590604305267, -0.018290625885128975, 0.0781509056687355, 0.017155449837446213, 0.07336053997278214, -0.13693398237228394, 0.03373972699046135, 0.11785340309143066, -0.017962681129574776, -0.047260213643312454, -0.051034171134233475, -0.08134409040212631, 0.03736371174454689, -0.025258099660277367, 0.14888843894004822, 0.09551599621772766, 0.07657705992460251, 0.07541146129369736, -0.07043737173080444, 0.023233337327837944, 0.07157420367002487, -0.26998254656791687, -0.004979359917342663, 0.17832763493061066, 0.02074817195534706, -0.07666037231683731, -0.03897368162870407, 0.2247905433177948, 0.12853339314460754, 0.16195876896381378, 0.1495087891817093, 0.09759698808193207, -0.1695323884487152, -0.04496423900127411, -0.15005609393119812, 0.1715998351573944, 0.03089679591357708, -0.08300378918647766, -0.036444809287786484, -0.054074160754680634, -0.04751243069767952, -0.022024348378181458, 0.08902450650930405, -0.009597886353731155, -0.0178595632314682, -0.15962578356266022, 0.18378134071826935, 0.059855829924345016, -0.15959423780441284, 0.10226518660783768, -0.009332485496997833, -0.15385238826274872, -0.12214937061071396, -0.05998886749148369, 0.1930588036775589, -0.06727021932601929, 0.04613914713263512, -0.1928071230649948, 0.11272542923688889, 0.07926159352064133, -0.02409685216844082, 0.029023999348282814, 0.06903160363435745, -0.1504017561674118, -0.014491813257336617, 0.03520888090133667, -0.05122968554496765, 0.10795871913433075, -0.035488054156303406, -0.0491102859377861, -0.09330329298973083, -0.16162754595279694, 0.1736331433057785, -0.1068856492638588, -0.12094418704509735, -0.06841553747653961, -0.1245758980512619, -0.12023285031318665, 0.08194765448570251, -0.07566118985414505, 0.07739069312810898, -0.0038792940322309732, -0.050785697996616364, 0.036242950707674026, -0.05777169391512871, 0.1448238641023636, 0.1878725290298462, -0.021209387108683586, 0.0845852643251419, -0.11917182803153992, -0.11963029205799103, 0.0080341761931777, -0.11927398294210434, 0.07904145121574402, -0.07520681619644165, -0.04123247414827347, -0.11758365482091904, -0.03009129874408245, -0.060052357614040375, -0.09483078122138977, 0.04738420248031616, 0.05770178884267807, 0.04060036689043045, -0.05442411080002785, -0.09955238550901413, 0.13557493686676025, 0.06475197523832321, 0.060495082288980484, 0.19031067192554474, 0.09643299877643585, -0.13369107246398926, 0.07676393538713455, -0.051223061978816986, -0.022873418405652046, -0.028508378192782402, -0.03016608953475952, 0.12370068579912186, -0.0566476546227932, -0.09109711647033691, 0.07629307359457016, -0.1291932314634323, -0.10187044739723206, 0.04163315147161484, 0.2573448121547699, 0.1294213831424713, 0.07378136366605759, 0.030660085380077362, 0.04729750007390976, -0.10753075778484344, 0.18504533171653748, 0.09337059408426285, -0.06444653868675232, 0.14849987626075745, -0.01701243966817856, -0.06250710040330887, -0.009496673941612244, 0.03352029621601105, -0.03716634213924408, 0.020965522155165672, -0.10468924790620804, 0.0265148114413023, -0.13700729608535767, 0.11671185493469238, 0.16462409496307373, -0.17994482815265656, -0.09405142068862915, -0.11420495808124542, -0.1047072783112526, -0.019274232909083366, -0.24672088027000427, 0.05162857100367546, -0.045060303062200546, -0.024762455374002457, -0.11515533179044724, -0.03394234925508499, 0.2267669290304184, -0.10677140206098557, -0.05290917679667473, 0.06150038167834282, -0.008815260604023933, -0.009860768914222717, -0.0632900521159172, 0.015500489622354507, 0.04405282065272331, 0.18743929266929626, 0.06970098614692688, -0.046029236167669296, -0.035141974687576294, -0.007648357190191746, -0.09820850193500519, 0.05629334598779678, 0.14179174602031708, -0.0775311291217804, 0.11657962203025818, -0.08060463517904282, 0.1546480506658554, -0.134455144405365, -0.12360579520463943, -0.079932302236557, -0.03794226422905922, 0.11071690917015076, 0.18279798328876495, 0.09899953752756119, 0.007849778980016708, 0.27910202741622925, 0.11493919789791107, -0.06010865420103073, 0.030985627323389053, -0.10590749979019165, 0.051926225423812866, -0.07695472985506058, -0.06346683949232101, -0.06069285422563553, -0.15185467898845673, -0.012751949019730091, -0.16946744918823242, 0.13825513422489166, 0.04894770681858063, 0.050139959901571274, -0.001834458438679576, 0.10115625709295273, -0.16621331870555878, 0.0341554619371891, 0.10447442531585693, 0.19140182435512543, 0.03018367476761341, 0.07511314749717712, -0.011595935560762882, 0.03794555738568306, 0.034129299223423004, -0.2421768605709076, -0.09684618562459946, -0.029785659164190292, -0.04913085326552391, -0.121881864964962, -0.17871855199337006, 0.06963048130273819, 0.1819954812526703, 0.09643169492483139, -0.096518874168396, -0.014185438863933086, -0.18342354893684387, 0.04444384574890137, 0.017011014744639397, 0.006804704666137695, -0.15594254434108734, -0.18595001101493835, 0.09772510826587677, 0.31301212310791016, 0.10406171530485153, 0.1695738583803177, -0.20489433407783508, -0.11194324493408203, 0.013182288035750389, -0.013994240202009678, -0.07010258734226227, -0.10671486705541611, -0.19243645668029785, 0.0631333440542221, 0.12437953054904938, -0.2505902349948883, 0.1407371163368225, 0.019780801609158516, -0.021060852333903313, -0.16611555218696594, 0.04252253472805023, 0.3234573304653168, 0.058701351284980774, 0.08634388446807861, 0.01827744022011757, 0.043472446501255035, -0.0438600517809391, 0.11645213514566422, 0.10488493740558624, 0.13400545716285706, -0.041244056075811386, -0.00970924086868763, 0.07166478782892227, 0.0546196810901165, 0.07265758514404297, 0.023393450304865837, 0.08505331724882126, 0.011269512586295605, -0.1791878044605255, 0.169591024518013, 0.20174451172351837, -0.4035041630268097, 0.0752079114317894, -0.5779930353164673, -0.1986939013004303, -0.26080846786499023, 0.6126935482025146, -0.7043323516845703, -0.3505280613899231, -0.6340207457542419, 0.15747518837451935, -0.5577695369720459, 0.2478274255990982, -0.49801939725875854, -0.09546402096748352, -0.06308963149785995, 0.04291320964694023, 0.18316182494163513, 0.18584921956062317, -0.00970907136797905, -0.23341432213783264, -0.12074775248765945, -0.15295587480068207, -0.0746593102812767, 0.08925772458314896, 0.23554055392742157, 0.20980440080165863, 0.06487902998924255, 0.009784841910004616, 0.040718089789152145, -0.04137455299496651, -0.055174633860588074, -0.08748757094144821, -0.046918921172618866, -0.20915406942367554, 0.15933239459991455, -0.05049028620123863, -0.1742844432592392, 0.15314780175685883, -0.06287842988967896, 0.13773883879184723, 0.23643675446510315, 0.09659367799758911, 0.12183299660682678, 0.07670150697231293, 0.2339339405298233, -0.11592451483011246, -0.08457178622484207, -0.08344145119190216, 0.1872328817844391, 0.08976224064826965, 0.06574621796607971, -0.11756307631731033, 0.002585509093478322, 0.012395997531712055, 0.026127422228455544, -0.20124496519565582, -0.17784957587718964, 0.18572616577148438, 0.024514131247997284, 0.19487930834293365, -0.01174006424844265, 0.13210010528564453, 0.14408132433891296, -0.22517932951450348, -0.19177091121673584, -0.24602121114730835, 0.002848179079592228, -0.14753776788711548, -0.06930989772081375, -0.02491699904203415, 0.1161665990948677, 0.006681947037577629, 0.23738928139209747, 0.23629599809646606, -0.13280098140239716, 0.03723391517996788, 0.08340644091367722, 0.2683507800102234, 0.05940628424286842, -0.05957571044564247, -0.25865063071250916, 0.22035609185695648, -0.055911824107170105, -0.0005436988431029022, 0.26085153222084045, 0.23742610216140747, -0.06038044020533562, -0.1129034012556076, 0.2028493732213974, -0.186912402510643, -0.07871964573860168, -0.08135171234607697, -0.13389058411121368, -0.13373741507530212, -0.06287901103496552, -0.09751459211111069, -0.0853099524974823, 0.12463130056858063, -0.1759866178035736, 0.10752329230308533, -0.00024965149350464344, 0.2212763875722885, 0.21268826723098755, 0.09502595663070679, -0.03953949734568596, -0.34777212142944336, -0.05986126884818077, 0.0839509442448616, -0.009034994058310986, 0.009460538625717163, -0.090408556163311, 0.21683011949062347, 0.014889874495565891, 0.13676129281520844, 0.09983903914690018, -0.24903228878974915, -0.2013152837753296, 0.13921703398227692, 0.03594769537448883, -0.27091071009635925, 0.14915716648101807, 0.09497006237506866, -0.07308848202228546, -0.07025641947984695, 0.16767247021198273, 0.15942998230457306, -0.06275409460067749, 0.13137151300907135, 0.16865307092666626, 0.22963383793830872, -0.1725063920021057, 0.09404299408197403, 0.20109416544437408, -0.0977906584739685, 0.18353283405303955, -0.10254491865634918, 0.16314753890037537, -0.34616103768348694, 0.19226863980293274, 0.09523308277130127, -0.07309995591640472, -0.045616667717695236, 0.1888193041086197, -0.2543940246105194, -0.16500069200992584, -0.26567769050598145, -0.09554146230220795, -0.07932838052511215, -0.1924656629562378, 0.0342838428914547, 0.03955474868416786, 0.17317333817481995, -0.09200074523687363, 0.06630446016788483, 0.07095128297805786, 0.016024533659219742, 0.2824918329715729, -0.11548896878957748, -0.00885852612555027, -0.057624511420726776, 0.06940668076276779, 0.06819841265678406, -0.13146618008613586, 0.11419634521007538, 0.004263970535248518, -0.07604260742664337, 0.012007537297904491, 0.20050480961799622, 0.17644274234771729, 0.16228656470775604, 0.046556975692510605, 0.026026651263237, -0.06248435005545616, -0.1547642946243286, -0.02733059599995613, -0.22483055293560028, 0.024346759542822838, -0.01595325954258442, -0.0249029491096735, -0.13091354072093964, -0.0705450177192688, 0.2166852056980133, 0.21035608649253845, -0.23528505861759186, 0.032721225172281265, 0.13801580667495728, 0.010316748172044754, -0.019481036812067032, 0.1481422632932663, 0.07964431494474411, 0.2707366645336151, -0.25439566373825073, -0.16905878484249115, -0.1744343787431717, -0.09590142220258713, -0.0039497013203799725, 0.14408119022846222, -0.16772235929965973, 0.1214720606803894, 0.16709072887897491, -0.1607324630022049, 0.0765208750963211, -0.14107052981853485, 0.0627630278468132, -0.04171048104763031, -0.08705943077802658, -0.1354655921459198, -0.19850094616413116, 0.1900765597820282, -0.03523349389433861, -0.0700172483921051, -0.20270000398159027, 0.12824246287345886, -0.07858118414878845, -0.17429174482822418, -0.2895473539829254, -0.29846808314323425, 0.2676433026790619, -0.28383052349090576, -0.008214522153139114, -0.03087802417576313, 0.039191145449876785, 0.08351165801286697, -0.17943759262561798, 0.22057311236858368, -0.2674421966075897, 0.008385266177356243, -0.06694696098566055, -0.14831456542015076, 0.14037249982357025, 0.24706272780895233, -0.044590532779693604, -0.07238573580980301, 0.32141435146331787, 0.08240877091884613, 0.08834221214056015, -0.04072989523410797, -0.013171282596886158, 0.18342483043670654, 0.03277027979493141, -0.00312672252766788, -0.2683820128440857, -0.12341555207967758, 0.14445462822914124, -0.01852194406092167, -0.047580622136592865, -0.027669016271829605, -0.1428678333759308, 0.025495709851384163, -0.047093749046325684, 0.1053389385342598, 0.2144482433795929, 0.02541913464665413, 0.28341400623321533, -0.25294700264930725, -0.16563424468040466, -0.10208217799663544, -0.2405262291431427, 0.11495336145162582, -0.1751762330532074, 0.10525590926408768, 0.07660509645938873, -0.24501757323741913, 0.2432790845632553, 0.03971615061163902, -0.21492375433444977, 0.21990182995796204, -0.250810831785202, -0.09663689136505127, -0.04523160308599472, 0.03453274816274643, -0.020464180037379265, -0.027451973408460617, -0.13473396003246307, -0.0028648911975324154, 0.08297508955001831, 0.13157957792282104, 0.04435795173048973, 0.09342866390943527, 0.037693798542022705, -0.17056752741336823, 0.07460867613554001, -0.21295474469661713, -0.045683495700359344, -0.05835440754890442, 0.01503122877329588, -0.06173256039619446, -0.08606978505849838, 0.08810693770647049, 0.17039287090301514, -0.014025319367647171, 0.013015573844313622, 0.09774752706289291, 0.17753353714942932, 0.08493348956108093, -0.058710623532533646, -0.1951565444469452, 0.22863639891147614, 0.002274951431900263, -0.08629205822944641, 0.15603934228420258, 0.1540045589208603, 0.08484482020139694, 0.02072182670235634, 0.11290095001459122, 0.1256384700536728, -0.09664967656135559, -0.007231459021568298, -0.11130175739526749, -0.03940534219145775, 0.17909179627895355, 0.028757678344845772, -0.08490285277366638, -0.03872649744153023, -0.1626848429441452, -0.021314814686775208, 0.014217645861208439, -0.04131575673818588, -0.013392655178904533, 0.11440636217594147, 0.05010385066270828, -0.006697492673993111, -0.06635637581348419, -0.051980212330818176, -0.007873264141380787, 0.30763885378837585, 0.027700433507561684, -0.00254919589497149, 0.12723775207996368, 0.1755862683057785, 0.1463688164949417, -0.1490623503923416, -0.17963556945323944, -0.029794445261359215, -0.15690842270851135, 0.17068243026733398, 0.1798224002122879, -0.2118033766746521, 0.07400907576084137, 0.21328307688236237, 0.03379230201244354, 0.1888459473848343, -0.011214983649551868, -0.21986611187458038, -0.0658201351761818, 0.072642482817173, 0.01040924433618784, -0.06484068185091019, -0.0010779964504763484, -0.01280621625483036, -0.1794167459011078, 0.0662243440747261, -0.18230469524860382, 0.13225795328617096, -0.011124719865620136, 0.04016309231519699, -0.03719455376267433, 0.02585216425359249, -0.11357276886701584, -0.12647022306919098, 0.15185777842998505, 0.2654755711555481, 0.14466257393360138, 0.12896451354026794, 0.020327897742390633, 0.1027386412024498, -0.04270251840353012, -0.21095216274261475, 0.09300863742828369, -0.00476498669013381, -0.030506635084748268, -0.042817533016204834, 0.09926482290029526, -0.198782280087471, -0.05043105036020279, 0.01650680974125862, 0.05041147768497467, -0.05048694834113121, -0.1101093664765358, 0.10999607294797897, 0.006514545530080795, 0.07782354950904846, 0.01259517390280962, -0.09775465726852417, 0.04242473095655441, -0.049165066331624985, -0.13842307031154633, 0.011934460140764713, 0.058722931891679764, 0.04811537638306618, -0.04436235874891281, 0.015984568744897842, 0.172898530960083, -0.0028694982174783945, -0.1697510927915573, 0.14798693358898163, -0.006760830990970135, 0.14271101355552673, 0.15489190816879272, -0.14963988959789276, 0.12526293098926544, -0.06996045261621475, -0.16833806037902832, 0.10899321734905243, 0.02132892608642578, 0.10775436460971832, 0.009093066677451134, -0.03318142890930176, 0.1322125494480133, 0.14731544256210327, -0.16672244668006897, 0.05962289497256279, 0.0728171169757843, -0.1274825632572174, 0.0003755397046916187, 0.03873969241976738, -0.1514415144920349, 0.008364936336874962, -0.0710180252790451, 0.23862160742282867, -0.07373549789190292, -0.029872024431824684, 0.30209586024284363, 0.2615039646625519, -0.013801068998873234, 0.20534485578536987, -0.29596349596977234, -0.14284002780914307, 0.1614893525838852, -0.1907205730676651, -0.14682883024215698, 0.1225227490067482, -0.09105978906154633, 0.1093674898147583, -0.07624635845422745, 0.024599963799118996, 0.07195158302783966, -0.14532269537448883, 0.10430196672677994, 0.09351498633623123, -0.10911840200424194, -0.009631305932998657, -0.09625804424285889, -0.036378659307956696, 0.047638919204473495, -0.08694438636302948, 0.13483157753944397, 0.1990601271390915, -0.09932839870452881, -0.1874350756406784, 0.0062313200905919075, 0.02171722613275051, 0.1159529834985733, 0.07823708653450012, 0.10580484569072723, 0.03586021438241005, -0.0920742079615593, -0.11285287141799927, -0.231950581073761, 0.13509906828403473, 0.06759412586688995, -0.06118777021765709, 0.15032833814620972, -0.04603617265820503, -0.2349819839000702, -0.08304649591445923, -0.052190229296684265, 0.07694242149591446, 0.21163414418697357, 0.029305923730134964, 0.1555652618408203, 0.1757282316684723, -0.05000362545251846, 0.09457484632730484, -0.2828270196914673, -0.13903415203094482, 0.2853594720363617, 0.08018992096185684, -0.0024851378984749317, 0.010327464900910854, -0.14278820157051086, 0.21079488098621368, 0.05523732677102089, 0.1051594614982605, 0.18345589935779572, -0.04590987041592598, -0.039208315312862396, 0.20485538244247437, -0.18889537453651428, -0.04744937643408775, -0.05976912006735802, -0.08613977581262589, 0.008595813065767288, -0.014578416012227535, 0.13405534625053406, -0.08908477425575256, -0.01924707554280758, 0.12816281616687775, -0.027044784277677536, -0.18463218212127686, 0.12542836368083954, -0.005809995345771313, 0.014818712137639523, 0.029410090297460556, 0.006577004212886095, -0.04141712188720703, 0.08527069538831711, -0.018805207684636116, 0.09115438908338547, 0.004577402491122484, 0.032481953501701355, 0.23164889216423035, -0.14913073182106018, -0.1040228009223938, 0.1366867572069168, -0.1362539380788803, -0.06854195147752762, 0.004365099128335714, 0.07114437222480774, -0.2088024765253067, -0.20535880327224731, 0.07533475756645203, 0.03145904093980789, 0.05839352309703827, -0.08795979619026184, 0.21855135262012482, -0.08655331283807755, -0.13404814898967743, 0.13512219488620758, -0.04245400056242943, 0.030176157131791115, -0.054887764155864716, -0.13593405485153198, -0.0665547251701355, 0.023866847157478333, -0.07023898512125015, 0.046601902693510056, -0.07641473412513733, -0.07673775404691696, 0.0650668814778328, -0.13365019857883453, -0.06296619772911072, 0.13266530632972717, 0.09025820344686508, 0.029283029958605766, 0.06629554182291031, -0.1668187379837036, -0.13845376670360565, 0.12096546590328217, 0.1581156849861145, 0.004840388894081116, -0.19244922697544098, -0.13784345984458923, -0.036798812448978424, 0.01749122329056263, 0.14037242531776428, 0.03242253512144089, -0.07889487594366074, 0.10604103654623032, 0.10919316858053207, -0.04810178652405739, 0.1556067019701004, -0.015599862672388554, -0.08244845271110535, 0.09517111629247665, 0.07284916937351227, 0.02676166221499443, 0.027758311480283737, -0.08178562670946121, -0.07584614306688309, 0.1636388897895813, -0.12213240563869476, 0.11387685686349869, -0.06295686960220337, -0.18889230489730835, -0.03795689344406128, 0.12068470567464828, 0.057052817195653915, 0.07494976371526718, 0.1188817173242569, -0.05676507577300072, -0.06274183839559555, -0.012975601479411125, 0.0889660120010376, 0.02880381979048252, -0.001673068618401885, -0.05791689082980156, 0.03602978587150574, -0.1383613646030426, 0.24108873307704926, -0.09126070886850357, 0.028662225231528282, 0.006818607449531555, -0.00022896367590874434, 0.09708528965711594, 0.12176527082920074, -0.11995786428451538, -0.1035875529050827, -0.08596862852573395, 0.19456282258033752, -0.09361777454614639, 0.2239363044500351, -0.10050603747367859, -0.17159013450145721, -0.002800076035782695, -0.05855414271354675, -0.008301506750285625, -0.09031128883361816, 0.04469446837902069, -0.0775168165564537, -0.15536443889141083, 0.07145100831985474, -0.028249366208910942, -0.0908019095659256, -0.005894933361560106, -0.10323435813188553, 0.18339455127716064, 0.19356225430965424, 0.2571130692958832, -0.3208809494972229, -0.20437005162239075, 0.13342976570129395, 0.08668065816164017, -0.11103411763906479, 0.10554025322198868, -0.06555914133787155, 0.19397474825382233, -0.015486334450542927, 0.06669428944587708, 0.08940118551254272, 0.029479695484042168, -0.027646586298942566, -0.03430372476577759, -0.2222069650888443, 0.06273723393678665, -0.06842401623725891, -0.06489960849285126, 0.122437484562397, 0.07155562937259674, -0.08596400916576385, 0.08102495223283768, 0.05846310034394264, -0.2209395468235016, 0.12550528347492218, 0.07508620619773865, 0.12650108337402344, 0.023145878687500954, -0.14226290583610535, -0.14725500345230103, 0.08050129562616348, -0.07143228501081467, 0.291707843542099, -0.1490548998117447, -0.035389889031648636, 0.12507258355617523, -0.11835992336273193, -0.18742015957832336, 0.08466347306966782, -0.003432709025219083, 0.09349431842565536, 0.008601515553891659, -0.1126592755317688, 0.09561474621295929, 0.03870202228426933, -0.041905477643013, 0.11155626177787781, -0.28284668922424316, -0.14853554964065552, -0.030714519321918488, -0.07535529136657715, -0.0922926813364029, 0.006278468295931816, 0.012501819059252739, 0.1466340869665146, -0.17921759188175201, -0.03954588249325752, 0.1920136958360672, -0.09375748783349991, 0.02047771029174328, 0.18265306949615479, 0.10105877369642258, -0.07563912868499756, -0.08576012402772903, 0.051236581057310104, -0.0018061046721413732, -0.11963625252246857, 0.09815912693738937, 0.16211536526679993, -0.03956145420670509, -0.10298164188861847, 0.004198097623884678, -0.15134067833423615, 0.023519989103078842, 0.0728183165192604, 0.03804287686944008, -0.07466274499893188, -0.024110030382871628, -0.07350165396928787, 0.1625947803258896, 0.03340574726462364, 0.06740927696228027, -0.20349964499473572, -0.015115893445909023, 0.17156267166137695, -0.17039832472801208, -0.0965496301651001, 0.22615258395671844, -0.03409311920404434, 0.048563987016677856, 0.09230876713991165, 0.10607558488845825, -0.006063790526241064, 0.004683375358581543, -0.20836223661899567, 0.2645058035850525, -0.01934342458844185, 0.06495688855648041, -0.10996900498867035, -0.04248405992984772, -0.26272982358932495, 0.0712713673710823, 0.1546848863363266, 0.2945689260959625, 0.06268472224473953, 0.03538212552666664, 0.1478242427110672, -0.14596515893936157, -0.06330697983503342, -0.2035447508096695, 0.027342749759554863, -5.0651895435294136e-05, -0.030233966186642647, -0.06852378696203232, 0.058982908725738525, -0.043772414326667786, -0.27583783864974976, -0.01845046877861023, 0.08776089549064636, 0.08151400089263916, -0.12381590157747269, -0.07033554464578629, -0.10946124792098999, -0.17380689084529877, 0.13792678713798523, 0.1608758568763733, -0.03283560276031494, 0.0018409271724522114, -0.05248856917023659, -0.039576586335897446, -0.018678277730941772, -0.17725770175457, 0.1048302873969078, 0.016409792006015778, -0.0016040916088968515, 0.051305536180734634, -0.12312979251146317, -0.10273793339729309, -0.06147557124495506, 0.0006052525714039803, -0.24952276051044464, 0.13878774642944336, -0.09450104832649231, 0.12483809143304825, -0.01800386980175972, -0.2816275954246521, -0.05782266706228256, -0.03894651308655739, -0.05312037095427513, 0.10314448177814484, 0.012348604388535023, -0.1955782175064087, -0.027343910187482834, -0.02273143082857132, 0.009423721581697464, 0.0010082167573273182, 0.04088951647281647, 0.21913914382457733, 0.19617395102977753, -0.0537383109331131, 0.2151540368795395, 0.12061060965061188, 0.0744907483458519, -0.0887366309762001, 0.1266484260559082, 0.004875682760030031, -0.3449207842350006, 0.0938691571354866, 0.13752485811710358, -0.10810743272304535, -0.016760317608714104, 0.023808831349015236, 0.014596661552786827, -0.010752344503998756, 0.08814382553100586, -0.02454056218266487, -0.009983688592910767, -0.11543160676956177, 0.10884987562894821, 0.05433075129985809, -0.20148491859436035, -0.004748390056192875, 0.05938998609781265, 0.007248530630022287, 0.11939544230699539, 0.11617916077375412, -0.15813955664634705, -0.0030760886147618294, -0.1083134263753891, 0.016991330310702324, -0.17392894625663757, -0.02858540415763855, -0.06464777886867523, -0.09763465821743011, 0.029328040778636932, -0.0223801638931036, 0.036319028586149216, -0.07594551891088486, -0.0792231559753418, -0.304741770029068, 0.10766816139221191, 0.028397860005497932, -0.10582353919744492, -0.1565009504556656, 0.0014434728072956204, 0.16438107192516327, 0.04836473613977432, -0.048385050147771835, 0.08119030296802521, -0.1258356124162674, -0.11299978196620941, -0.029005110263824463, -0.1457856148481369, 0.07399225234985352, 0.10071081668138504, 0.0874115601181984, -0.04304322600364685, -0.29608091711997986, -0.14414198696613312, 0.07235679030418396, -0.10893607139587402, -0.14808043837547302, -0.09490366280078888, -0.2654278874397278, -0.20278842747211456, -0.09310214221477509, -0.03727951645851135, 0.06391311436891556, -0.06519553065299988, -0.028343865647912025, 0.10035226494073868, 0.019701281562447548, 0.03868329897522926, -0.11703421175479889, -0.05488954111933708, 0.04948212951421738, -0.1378539800643921, -0.0761084035038948, -0.020851382985711098, 0.054804932326078415, -0.19101306796073914, -0.02404170110821724, -0.25543057918548584, 0.028175100684165955, 0.16549643874168396, -0.051244255155324936, -0.07515211403369904, -0.21820534765720367, -0.10849480330944061, -0.20228230953216553, -0.1717326045036316, -0.11408146470785141, -0.1307676136493683, 0.006276917178183794, 0.16114242374897003, 0.0935768410563469, 0.10942738503217697, 0.07282537966966629, 0.06135590374469757, 0.0032150177285075188, -0.09287688881158829, 0.20857416093349457, -0.15596191585063934, 0.12267459183931351, -0.041526127606630325, -0.0458349846303463, -0.017229238525032997, -0.15371829271316528, 0.1051592081785202, -0.06343893706798553, 0.10358370095491409, -0.06274564564228058, 0.060630857944488525, 0.09932306408882141, 0.055445604026317596, -0.04798857867717743, -0.08828747272491455, 0.16934922337532043, -0.1583249568939209, -0.03968711942434311, -0.04401017352938652, -0.037921369075775146, 0.01464090496301651, 0.07670296728610992, 0.07692619413137436, 0.07294663041830063, -0.1677599549293518, 0.03197978064417839, 0.10434754937887192, 0.04250231385231018, -0.0056377919390797615, 0.03557487949728966, -0.03903109207749367, 0.06191698834300041, -0.18661175668239594, 0.03903461620211601, 0.04527920112013817, 0.005777367856353521, -0.1452164351940155, -0.13551437854766846, -0.1656043380498886, 0.12448582798242569, -0.02559628337621689, 0.12769676744937897, 0.11370914429426193, -0.044688787311315536, -0.0002988181367982179, -0.1900225430727005, -0.008576905354857445, -0.0392242968082428, 0.1474706083536148, 0.05348699167370796, 0.12664395570755005, -0.09272684156894684, -0.02925981394946575, -0.04382721707224846, 0.04497092589735985, 0.029356438666582108, 0.04165598750114441, 0.09229132533073425, -0.058238498866558075, -0.0469164177775383, 0.002678097691386938, -0.0835503563284874, -0.02602093666791916, 0.15471883118152618, -0.0457112155854702, -0.0025228445883840322, -0.06258051097393036, 0.014269332401454449, 0.019001435488462448, -0.15097203850746155, -0.10611080378293991, -0.06354064494371414, -0.08819252997636795, 0.14419199526309967, 0.0505644828081131, 0.03391013666987419, -0.02758837305009365, 0.16879695653915405, 0.30849385261535645, 0.017214743420481682, 0.20013248920440674, -0.02019662968814373, -0.04555285722017288, 0.07265151292085648, 0.006778152193874121, -0.15766479074954987, -0.08500062674283981, 0.09220883995294571, 0.020587965846061707, -0.08327899128198624, -0.16455431282520294, 0.05518884211778641, -0.0546557754278183, -0.2256876528263092, -0.12681661546230316, 0.11523950845003128, -0.2904721200466156, 0.0255688838660717, -0.0826144590973854, -0.027594605460762978, 0.010066036134958267, -0.05221870169043541, 0.08034725487232208, -0.022614838555455208, 0.01442549005150795, 0.10469624400138855, -0.08623156696557999, 0.0820058062672615, 0.08993369340896606, 0.011573818512260914, 0.18574994802474976, 0.008535542525351048, -0.08247596025466919, -0.01658068224787712, -0.08153505623340607, -0.14013652503490448, -0.0143476203083992, 0.10450590401887894, -0.1919129341840744, -0.16858744621276855, -0.14046165347099304, 0.16786295175552368, 0.021736588329076767, -0.1294695883989334, 0.13765375316143036, -0.023003119975328445, 0.13321545720100403, -0.13747863471508026, -0.06129301339387894, 0.10342644155025482, 0.09310934692621231, -0.1283392608165741, 0.12187889963388443, -0.06355872005224228, 0.054476846009492874, 0.07674895226955414, -0.08424454927444458, 0.13842985033988953, 0.02193082496523857, -0.04025306552648544, 0.0112563855946064, -0.011858435347676277, 0.08554086834192276, 0.16364988684654236, 0.12371040880680084, 0.02382184937596321, 0.08858372271060944, 0.20345787703990936, -0.04138566926121712, -0.06828148663043976, -0.03108873777091503, -0.1056288555264473, -0.10696620494127274, 0.08853545784950256, 0.03480754792690277, -0.14216551184654236, -0.047782398760318756, -0.17826887965202332, -0.07766179740428925, 0.10150882601737976, -0.035343822091817856, 0.050568290054798126, -0.14181464910507202, 0.002642875537276268, 0.09069247543811798, -0.10167258977890015, 0.03774771839380264, 0.11029163748025894, 0.061307355761528015, -0.030834199860692024, 0.15887930989265442, 0.14810730516910553, 0.07364025712013245, 0.01248984131962061, 0.04261288046836853, -0.008952714502811432, -0.0018086539348587394, 0.03540254384279251, -0.022663379088044167, -0.03411542996764183, 0.07439684122800827, 0.03355766087770462, 0.021113980561494827, 0.03668976575136185, -0.12158197164535522, -0.010374416597187519, -0.057816240936517715, 0.03512340411543846, -0.17866945266723633, -0.2759278416633606, 0.5542519688606262, 0.2141917496919632, -0.27963384985923767, 0.033840931951999664, -0.07614531368017197, -0.04281451553106308, 0.3294823467731476, -0.48899200558662415, 0.604995608329773, 0.44213688373565674, 0.07783809304237366, -0.14759708940982819, 0.13016529381275177, -0.6134709119796753, 0.0902271643280983, -0.045887622982263565, -0.013878989033401012, -0.17048834264278412, 0.0633229911327362, 0.24510611593723297, 0.19965782761573792, 0.006035571452230215, 0.1427304446697235, 0.007258051540702581, 0.08059538155794144, 0.0370926633477211, -0.28510546684265137, 0.0811481848359108, -0.0345049612224102, -0.21882858872413635, 0.14746500551700592, -0.013275525532662868, -0.05286433547735214, 0.061371490359306335, 0.1776919662952423, 0.08374499529600143, -0.06345144659280777, -0.3318268656730652, -0.20216485857963562, 0.12563569843769073, -0.037800133228302, -0.028869325295090675, 0.19087955355644226, 0.2416130006313324, 0.13547688722610474, 0.03852704539895058, -0.1730014979839325, -0.12997563183307648, 0.040244296193122864, -0.2681678533554077, 0.08923457562923431, -0.19523663818836212, -0.09717871248722076, -0.20228329300880432, -0.1032782793045044, 0.020095452666282654, -0.18660904467105865, 0.2161525934934616, 0.2906579077243805, -0.08142410218715668, 0.08564633131027222, 0.09212726354598999, 0.24973225593566895, -0.054907504469156265, 0.12365023046731949, 0.1482411026954651, -0.013703749515116215, 0.23609617352485657, -0.3999238908290863, 0.2595781981945038, 0.35019394755363464, -0.13216711580753326, 0.10113262385129929, 0.14277230203151703, -0.019015071913599968, 0.04555531218647957, -0.03927076235413551, -0.18076205253601074, 0.09699634462594986, -0.0793856754899025, 0.17720870673656464, -0.12889505922794342, 0.13006523251533508, -0.08555322885513306, 0.17585289478302002, 0.023577431216835976, 0.1431615650653839, 0.05164312198758125, -0.1783776432275772, 0.14269301295280457, -0.20786476135253906, -0.1574169099330902, 0.10229332000017166, -0.03614888712763786, -0.08103298395872116, -0.060214851051568985, -0.011125883087515831, -0.10784731805324554, -0.1450970619916916, -0.10234001278877258, 0.21901516616344452, -0.03436458110809326, -0.07752688974142075, -0.18490633368492126, 0.012204918079078197, 0.15093378722667694, 0.06425857543945312, 0.16324648261070251, 0.1923239380121231, 0.057640209794044495, 0.020010096952319145, -0.08668036758899689, -0.04799716919660568, 0.23363655805587769, 0.10702309012413025, -0.13272975385189056, 0.03322853147983551, -0.09826073050498962, -0.05679696053266525, 0.009851804934442043, 0.3050515055656433, -0.1294122338294983, 0.20070675015449524, 0.01113725733011961, 0.23064333200454712, 0.05485278740525246, 0.21790748834609985, 0.14314685761928558, -0.22115996479988098, -0.12262295931577682, 0.08598359674215317, -0.179819718003273, 0.10108467936515808, -0.15746663510799408, 0.009496523067355156, 0.060996782034635544, 0.04217833653092384, 0.2588406503200531, 0.03340243175625801, 0.10549188405275345, 0.1366489976644516, -0.06736151874065399, -0.18091195821762085, 0.2966107726097107, -0.06846901029348373, 0.1992938220500946, 0.11562707275152206, 0.031424760818481445, -0.2383849173784256, 0.08619223535060883, -0.13928020000457764, 0.05854562297463417, -0.07529707998037338, 0.175273135304451, -0.24825049936771393, 0.024515269324183464, -0.041970182210206985, 0.005655256099998951, 0.25282397866249084, -0.2603151500225067, -0.15938031673431396, 0.3361021876335144, 0.18765628337860107, 0.2059904932975769, -0.27178114652633667, -0.025698229670524597, -0.04617677256464958, 0.04442291334271431, 0.07661771774291992, -0.06725305318832397, -0.10582590103149414, -0.1849774420261383, 0.1320812702178955, -0.02453046478331089, 0.27091795206069946, -0.18060752749443054, -0.2131309062242508, -0.14607426524162292, 0.29128193855285645, -0.06759847700595856, 0.026425272226333618, -0.04854489490389824, 0.28962385654449463, 0.007493340410292149, -0.2857930362224579, -0.037431750446558, -0.007842114195227623, -0.2515428364276886, 0.11355746537446976, 0.1911659836769104, 0.040308546274900436, 0.021985961124300957, -0.0749567300081253, 0.17529162764549255, -0.05269108712673187, 0.2738880217075348, 0.10005413740873337, 0.128471240401268, -0.0030999337323009968, -0.2441847026348114, -0.11051882058382034, 0.07864756882190704, -0.2815587818622589, -0.2740122377872467, -0.11282891780138016, 0.048981282860040665, -0.2506518065929413, -0.2641903758049011, -0.056182701140642166, -0.13364216685295105, 0.20906788110733032, 0.13144369423389435, -0.23155570030212402, -0.26082441210746765, 0.1834733635187149, -0.06730824708938599, -0.061094801872968674, 0.04763144627213478, 0.0017644382314756513, 0.12526728212833405, 0.16843752562999725, -0.14366905391216278, -0.2233695238828659, 0.09753795713186264, -0.1391628086566925, 0.07169941812753677, -0.018441971391439438, -0.15383662283420563, 0.06784191727638245, -0.31329166889190674, 0.1428411900997162, -0.08854786306619644, 0.16499529778957367, -0.13766808807849884, -0.00923765916377306, 0.05939895659685135, -0.20194876194000244, -0.06527428328990936, -0.008937611244618893, 0.06378994137048721, 0.04612680524587631, -0.03163052722811699, -0.062405992299318314, -0.1190633699297905, 0.14297519624233246, -0.31553733348846436, 0.220633402466774, 0.18065473437309265, 0.11320296674966812, 0.3150314688682556, -0.06331158429384232, 0.102132149040699, 0.1798194944858551, -0.1617237776517868, 0.0036458377726376057, -0.07940047234296799, -0.18696914613246918, -0.3902417719364166, -0.06629743427038193, -0.09392517060041428, 0.04629196599125862, -0.3342779576778412, -0.043292511254549026, 0.20534592866897583, 0.13228435814380646, 0.2902187407016754, -0.10248394310474396, 0.041407547891139984, 0.0470011942088604, 0.07051624357700348, 0.06568354368209839, 0.027233481407165527, 0.028162164613604546, 0.11775534600019455, -0.04943891614675522, 0.08976290374994278, 0.03611098974943161, -0.043682366609573364, -0.11095292121171951, -0.11188630014657974, 0.052122220396995544, 0.033074259757995605, 0.18895116448402405, 0.10288095474243164, 0.020128166303038597, -0.01681888848543167, -0.13527466356754303, -0.08093828707933426, 0.09824772924184799, -0.21670401096343994, 0.008301411755383015, 0.19144757091999054, -0.005064459051936865, -0.2147889882326126, -0.12420523911714554, -0.08912596851587296, 0.15296529233455658, 0.15377067029476166, 0.01981417089700699, -0.19050267338752747, -0.22148878872394562, 0.11217613518238068, -0.1519761085510254, 0.14398491382598877, 0.081879161298275, 0.05258259177207947, -0.0338190421462059, -0.2241293042898178, -0.04532873257994652, -0.038982365280389786, 0.020095717161893845, -0.09962167590856552, 0.08119744062423706, -0.16686828434467316, 0.20513631403446198, -0.18228276073932648, -0.0766991600394249, -0.16454444825649261, 0.21866510808467865, 0.04806019738316536, 0.01741619221866131, -0.11963886022567749, -0.2544752359390259, 0.018549541011452675, -0.11120665818452835, 0.21703040599822998, -0.05098869651556015, 0.02953276038169861, -0.18587718904018402, -0.2787245213985443, -0.38829323649406433, 0.051571086049079895, -0.030178148299455643, -0.03950943425297737, 0.051201846450567245, 0.10845881700515747, -0.09714636951684952, 0.07560891658067703, 0.06901230663061142, 0.009340298362076283, 0.04786911606788635, -0.02289835549890995, -0.14905954897403717, 0.01257674302905798, 0.1276361048221588, 0.013610528782010078, 0.03686855360865593, 0.1304297000169754, 0.09094783663749695, -0.005433598533272743, -0.19834992289543152, 0.06561019271612167, -0.14878836274147034, 0.08444875478744507, -0.05522935837507248, -0.061198703944683075, -0.05165480822324753, -0.011148371733725071, 0.09782673418521881, 0.10419123619794846, -0.14042988419532776, -0.04083229973912239, 0.20792891085147858, 0.0010642012348398566, 0.08756569772958755, 0.16484998166561127, -0.11887117475271225, 0.16506262123584747, -0.04096489027142525, -0.3034995198249817, 0.030301757156848907, 0.12873218953609467, -0.08089412748813629, -0.2753174602985382, -0.03366970270872116, -0.1267174929380417, 0.09370850026607513, 0.08282681554555893, 0.11708446592092514, -0.049049198627471924, 0.06715822219848633, 0.050913210958242416, -0.19519653916358948, -0.27304720878601074, -0.06864939630031586, 0.25592565536499023, 0.16088572144508362, -0.08223990350961685, 0.01650356501340866, 0.10613466054201126, 0.07717297971248627, -0.2074609398841858, 0.05035662278532982, -0.008598470129072666, 0.101875439286232, -0.0677059069275856, 0.12338032573461533, 0.13927653431892395, 0.014448764733970165, -0.06020764261484146, -0.0011537742102518678, 0.18312039971351624, -0.17395152151584625, 0.10694944858551025, -0.051334116607904434, -0.010240902192890644, 0.029541317373514175, 0.03543078154325485, 0.14283433556556702, -0.16886840760707855, -0.04714100435376167, 0.01113557256758213, -0.023126298561692238, 0.02770976908504963, 0.14083077013492584, -0.29168859124183655, -0.10956194251775742, -0.06218879669904709, -0.064106784760952, -0.03567930683493614, 0.06973016262054443, 0.04065242037177086, 0.08962040394544601, 0.04591045901179314, 0.1298433542251587, -0.10637813061475754, -0.2090100646018982, -0.007014416623860598, 0.024768037721514702, 0.1827755719423294, 0.04775749146938324, 0.15769211947917938, 0.0013043717481195927, 0.0784345343708992, 0.012591253966093063, 0.30732983350753784, 0.13374590873718262, -0.16118335723876953, -0.07653146982192993, 0.04708158224821091, 0.1221049502491951, -0.10868500173091888, 0.10629399120807648, 0.1466478407382965, -0.16208770871162415, -0.017682388424873352, -0.147881418466568, 0.10701670497655869, 0.12436981499195099, -0.0347074493765831, 0.2766859233379364, 0.09042083472013474, -0.015192906372249126, 0.22754551470279694, 0.10086023062467575, -0.07967563718557358, -0.11584651470184326, -0.1967754364013672, 0.0239680465310812, 0.06797733902931213, 0.10877440124750137, 0.23854921758174896, -0.12163174897432327, -0.014311610721051693, 0.11438759416341782, 0.08052331209182739, 0.07186387479305267, 0.21620826423168182, -0.18283991515636444, -0.046180468052625656, 0.027367569506168365, -0.3403077721595764, -0.0590035542845726, 0.01826075091958046, 0.023045381531119347, -0.0020931940525770187, 0.022077729925513268, -0.16377393901348114, 0.049741290509700775, -0.12279397249221802, 0.025052165612578392, 0.14338019490242004, 0.1310497671365738, -0.03587689250707626, 0.032693322747945786, 0.12666872143745422, 0.22058196365833282, 0.1773325502872467, 0.011167533695697784, -0.016341373324394226, 0.03200608491897583, -0.20857292413711548, -0.06379727274179459, -0.21179577708244324, 0.14723548293113708, 0.12831035256385803, 0.036206841468811035, 0.06565821170806885, 0.08649585396051407, 0.011801514774560928, -0.05291009694337845, 0.04661441966891289, -0.02442922070622444, 0.21439366042613983, -0.21205438673496246, -0.004737688694149256, -0.14640673995018005, 0.12407849729061127, 0.08059105277061462, 0.08255080133676529, -0.03338820859789848, 0.0227148849517107, -0.05279649794101715, -0.11955868452787399, -0.11588340252637863, -0.03837084025144577, -0.05634887143969536, -0.07113621383905411, 0.0925876796245575, -0.09841553121805191, -0.16760151088237762, -0.043086789548397064, 0.1995665729045868, -0.19599229097366333, -0.13347958028316498, 0.11430387198925018, 0.03713911026716232, 0.04345102235674858, -0.04559202492237091, 0.10246364027261734, 0.12496054917573929, -0.007928121834993362, 0.053697582334280014, 0.17512458562850952, 0.23365435004234314, 0.01894391141831875, 0.14675867557525635, -0.1945963203907013, 0.09401188045740128, -0.1912769377231598, 0.05964268371462822, -0.15370099246501923, -0.18356889486312866, 0.037096284329891205, -0.06672844290733337, 0.06407603621482849, -0.01333863940089941, -0.06266065686941147, -0.16560372710227966, -0.029040129855275154, -0.05024448037147522, 0.19666728377342224, -0.15394817292690277, -0.10018253326416016, -0.05968831479549408, -0.054851725697517395, 0.003216065466403961, 0.03310922905802727, -0.1299106776714325, 0.13411515951156616, -0.013079921714961529, 0.0008047890150919557, 0.0726931020617485, 0.12183287739753723, -0.1529805213212967, 0.017750758677721024, 0.18572066724300385, -0.0511101633310318, -0.0770241767168045, 0.043275464326143265, 0.04735647141933441, -0.055714357644319534, 0.18594199419021606, 0.15901602804660797, 0.14703235030174255, 0.28821900486946106, -0.17125114798545837, -0.05392393842339516, -0.22533448040485382, -0.029153618961572647, -0.06895653903484344, 0.019161976873874664, 0.23668602108955383, -0.23572653532028198, -0.08130288869142532, -0.18318559229373932, -0.07476301491260529, -0.1831253319978714, 0.14477278292179108, -0.06852716952562332, -0.2274237871170044, 0.06927791237831116, -0.10417495667934418, -0.11691804975271225, -0.12275324016809464, 0.19827796518802643, -0.1474885642528534, -0.04275809973478317, -0.093189537525177, 0.2716582715511322, 0.00140277948230505, -0.28580018877983093, -0.18834736943244934, -0.027957843616604805, -0.07480305433273315, -0.015378307551145554, 0.20318928360939026, -0.04279160499572754, -0.09336889535188675, -0.06682505458593369, 0.05035011097788811, -0.09418340027332306, 0.1290024071931839, 0.05497748777270317, 0.2344093918800354, -0.015703201293945312, 0.1219046488404274, 0.23556041717529297, -0.006852916907519102, 0.09303516894578934, -0.03580569103360176, -0.19213220477104187, -0.22053976356983185, -0.196430042386055, 0.1090736910700798, -0.13324794173240662, 0.059952035546302795, -0.05334828794002533, -0.045307859778404236, -0.04713265597820282, 0.0802210196852684, -0.19122153520584106, 0.06473139673471451, 0.06512568891048431, -0.10806071013212204, 0.10205613821744919, -0.09821852296590805, -0.06987661123275757, -0.05141723155975342, -0.16691987216472626, 0.04920944944024086, -0.040522921830415726, 0.09079601615667343, 0.013709679245948792, 0.18200159072875977, -0.08866370469331741, 0.017841827124357224, -0.07987082004547119, 0.07354813814163208, -0.025277789682149887, -0.04290098696947098, 0.052624110132455826, -0.08659175038337708, -0.15165925025939941, -0.08524584025144577, -0.13973189890384674, -0.05425778031349182, 0.1877470165491104, 0.09389856457710266, 0.0026863787788897753, 0.11929771304130554, 0.09292897582054138, -0.22284738719463348, -0.16308417916297913, -0.05006093531847, -0.04659729823470116, -0.05395819619297981, 0.009580221958458424, -0.09497962146997452, -0.05649302899837494, -0.14895929396152496, -0.027403097599744797, 0.21915490925312042, 0.07385557889938354, -0.07103916257619858, 0.02769242785871029, -0.07713597267866135, -0.2641086280345917, -0.13067340850830078, 0.06325477361679077, -0.0775785818696022, 0.0007590317982248962, -0.040357399731874466, 0.1449265033006668, 0.00623278459534049, -0.05664046108722687, 0.03723589703440666, -0.08576271682977676, -0.04730517044663429, -0.15408572554588318, -0.173628568649292, -0.10525580495595932, 0.027322638779878616, -0.1279362440109253, 0.006500902120023966, -0.20186349749565125, -0.08946871012449265, 0.22630493342876434, 0.33024582266807556, 0.022247668355703354, 0.18791259825229645, -0.16152174770832062, -0.07993537187576294, 0.17402154207229614, 0.0151421669870615, -0.1061905100941658, 0.15606887638568878, -0.09767589718103409, -0.12323416769504547, -0.2120979279279709, -0.05815522000193596, 0.01949789933860302, -0.04060446470975876, -0.028591565787792206, -0.10947083681821823, -0.13768158853054047, -0.2012406885623932, 0.06633956730365753, 0.035751037299633026, 0.12168796360492706, -0.11032980680465698, 0.07221195101737976, -0.2571171224117279, -0.11917898803949356, 0.05498950555920601, -0.18225793540477753, -0.09923131763935089, 0.09566047042608261, -0.10213587433099747, 0.04491904005408287, 0.09091269224882126, 0.16485656797885895, 0.12586161494255066, -0.0993143692612648, 0.049397651106119156, -0.15825486183166504, 0.00596174830570817, -0.1385868489742279, 0.1104498878121376, -0.003485821420326829, 0.07604839652776718, -0.024674197658896446, 0.03384256735444069, -0.08789973706007004, 0.10773099213838577, -0.10959155857563019, 0.1335967481136322, -0.011653939262032509, -0.025378424674272537, 0.035996031016111374, 0.024849141016602516, -0.05638287216424942, -0.09419642388820648, -0.061511266976594925, 0.08290192484855652, -0.13021576404571533, -0.08659885078668594, -0.13177704811096191, -0.06920034438371658, -0.17609769105911255, 0.13391858339309692, 0.00840228982269764, -0.25657784938812256, 0.25252124667167664, -0.11948394030332565, -0.0412299782037735, 0.17025697231292725, -0.13786476850509644, -0.02766110748052597, -0.12135876715183258, 0.1930968165397644, 0.009890049695968628, -0.10242331773042679, 0.011569705791771412, 0.17344124615192413, 0.042227379977703094, 0.1492394357919693, -0.16563770174980164, -0.14101745188236237, -0.11769407987594604, -0.05822604522109032, 0.08888007700443268, 0.03855055943131447, 0.04037163034081459, 0.08063473552465439, 0.09640868753194809, 0.12695376574993134, 0.03233158960938454, -0.08901411294937134, 0.11434513330459595, -0.1037731021642685, 0.21478448808193207, 0.06347419321537018, 0.015868961811065674, 0.08728612214326859, -0.002022347878664732, 0.08345238864421844, 0.2157837301492691, -0.11312924325466156, -0.08356741815805435, 0.05939672142267227, -0.11299316585063934, 0.02182258665561676, 0.003481548745185137, 0.04480108246207237, 0.0569755919277668, 0.06988930702209473, -0.07961763441562653, 0.07937409728765488, 0.05720225349068642, 0.1848919540643692, 0.07908710837364197, 0.10619909316301346, 0.016938649117946625, 0.049943968653678894, 0.11577532440423965, 0.004107098560780287, 0.07856614887714386, -0.00467741210013628, -0.1505080908536911, -0.17142179608345032, -0.04792819917201996, 0.08313468843698502, -0.17117108404636383, -0.1735800802707672, 0.0644870176911354, -0.08955252170562744, -0.09591089934110641, 0.08255096524953842, 0.05601189658045769, -0.0126557732000947, -0.09737615287303925, 0.021807478740811348, -0.09622140228748322, -0.1398499608039856, 0.13202321529388428, 0.030063128098845482, 0.02403828501701355, -0.2139098197221756, -0.17036846280097961, 0.20115748047828674, -0.012498671188950539, 0.08303458243608475, 0.05355818569660187, 0.0656547024846077, -0.21572169661521912, 0.18735450506210327, 0.09618839621543884, -0.05661182478070259, 0.12031492590904236, 0.021728672087192535, -0.06435238569974899, 0.0028878101147711277, 0.08638971298933029, -0.1698976457118988, 0.2002614438533783, -0.09057723730802536, -0.10693169385194778, -0.2279597520828247, 0.18397295475006104, -0.05185387656092644, -0.005345240235328674, 0.1727389097213745, 0.24867959320545197, 0.06089484691619873, 0.06042364239692688, 0.011933105997741222, -0.03154471889138222, 0.1354789286851883, 0.13047608733177185, 0.09628863632678986, -0.2633857727050781, 0.060895077884197235, -0.12764506042003632, 0.035877007991075516, 0.06963431090116501, 0.04788856580853462, 0.18329891562461853, -0.12175070494413376, -0.08000772446393967, -0.13951049745082855, 0.03272940218448639, -0.0971168801188469, 0.19961349666118622, -0.05978529527783394, 0.027070285752415657, -0.22984696924686432, 0.2153567671775818, -0.08540719002485275, -0.06303466856479645, 0.23572292923927307, -0.1114184558391571, -0.0891638994216919, 0.11409128457307816, 0.04713716357946396, -0.15813949704170227, 0.06151348724961281, 0.21152999997138977, -0.07153861224651337, 0.0893675684928894, 0.02002106048166752, 0.05481595918536186, -0.150794118642807, 0.06814613938331604, 0.05355376750230789, -0.07807717472314835, -0.11439228057861328, 0.18471603095531464, -0.0268732700496912, -0.09857092052698135, 0.2318485826253891, 0.062301892787218094, -0.0036109420470893383, 0.2137385457754135, -0.02504892833530903, -0.04119892045855522, 0.028447072952985764, -0.07004600018262863, -0.09281699359416962, 0.031169049441814423, 0.03264010325074196, -0.013596923090517521, 0.14489410817623138, -0.03216370567679405, 0.16582487523555756, 0.1957513391971588, 0.15022099018096924, 0.18661527335643768, -0.07950153946876526, 0.076360322535038, 0.26677775382995605, -0.02312752604484558, -0.07091836631298065, 0.046190932393074036, -0.09600546211004257, 0.04010147601366043, 0.046312134712934494, -0.07849429547786713, -0.09346050024032593, 0.2370573729276657, 0.14430801570415497, -0.03452572599053383, -0.03294135257601738, 0.015810122713446617, -0.08844352513551712, -0.006538480054587126, -0.026495788246393204, -0.11865860968828201, -0.10895263403654099, -0.025136129930615425, -0.0018819315591827035, 0.031507037580013275, 0.00015582334890495986, -0.09830465912818909, 0.16704639792442322, 0.07359101623296738, -0.0207885280251503, 0.07247624546289444, -0.08288216590881348, 0.21488146483898163, 0.09174428135156631, -0.17449897527694702, -0.028502603992819786, 0.02416609227657318, -0.14477725327014923, 0.16744162142276764, 0.2901928722858429, 0.003692298661917448, -0.024714482948184013, 0.08361877501010895, -0.032711829990148544, -0.11277305334806442, -0.05089610069990158, -0.034695662558078766, -0.16208802163600922, 0.016306104138493538, -0.029030218720436096, -0.09871744364500046, 0.059809476137161255, -0.16042019426822662, -0.0013996260240674019, 0.028198665007948875, 0.037513602524995804, 0.13291773200035095, 0.020077131688594818, -0.04641883075237274, -0.060305532068014145, -0.017220335081219673, -0.10603216290473938, -0.0510762520134449, 0.06676850467920303, 0.12565968930721283, -0.10957689583301544, -0.21638162434101105, -0.16081883013248444, 0.07443326711654663, -0.030554737895727158, -0.11009098589420319, 0.18041543662548065, -0.02722722850739956, -0.19542841613292694, 0.09452246874570847, -0.02742033265531063, -0.119774229824543, 0.21864666044712067, 0.1449599415063858, -0.0787358433008194, 0.09692199528217316, 0.11466961354017258, -0.00505796167999506, -0.09474153071641922, -0.06277233362197876, -0.18827109038829803, -0.14749501645565033, -0.15835198760032654, 0.029199320822954178, -0.05818289518356323, 0.19098182022571564, 0.1039128303527832, 0.24441392719745636, 0.006508338265120983, -0.09919511526823044, -0.00922907330095768, 0.006556225474923849, -0.01247198786586523, -0.11458642035722733, 0.045716963708400726, -0.0541367307305336, 0.20763371884822845, -0.1733967512845993, -0.014400659129023552, -0.17462852597236633, 0.13054350018501282, 0.05733763054013252, 0.09215648472309113, 0.21985645592212677, -0.19659018516540527, -0.0458231121301651, -0.04955112561583519, 0.04193594306707382, -0.10915548354387283, 0.05980018898844719, -0.2512732446193695, -0.14432775974273682, 0.12267936766147614, -0.07224827259778976, -0.14493989944458008, -0.10432615876197815, 0.04143143817782402, 0.07121694833040237, -0.0546589195728302, 0.04072260484099388, -0.05989678204059601, -0.050837501883506775, 0.02386823296546936, -0.002790565602481365, 0.059478700160980225, -0.07551171630620956, 0.07345786690711975, 0.014370469376444817, -0.09981373697519302, -0.062348537147045135, 0.08570706844329834, 0.10942932963371277, -0.052971430122852325, -0.03093895874917507, 0.017926979809999466, 0.008938442915678024, 0.003371160477399826, 0.05763014778494835, 0.19153903424739838, 0.2013997584581375, 0.33640235662460327, -0.3705185055732727, -0.19548474252223969, 0.12392258644104004, 0.1722274273633957, -0.15190459787845612, 0.14636386930942535, 0.20669709146022797, -0.4417664408683777, 0.15240906178951263, -0.022938063368201256, -0.3636351227760315, 0.016413815319538116, -0.1475321352481842, -0.12917113304138184, -0.23268485069274902, 0.03494555503129959, -0.2813846170902252, 0.061740580946207047, 0.20020127296447754, -0.09585418552160263, -0.289704293012619, -0.20165586471557617, 0.03318190574645996, -0.2008994072675705, -0.003982991445809603, -0.2833067774772644, -0.048802025616168976, 0.1942116767168045, 0.06982947140932083, -0.22791655361652374, -0.315959632396698, 0.2622097134590149, -0.37458762526512146, -0.08493499457836151, -0.11785849928855896, 0.26388251781463623, -0.07567816227674484, -0.238686665892601, 0.03903346136212349, -0.1338299959897995, 0.11220375448465347, 0.14222049713134766, 0.15592217445373535, -0.03273941949009895, -0.01402935478836298, 0.025614697486162186, 0.25376826524734497, -0.1208588108420372, -0.09174884855747223, -0.04431130737066269, -0.2063063681125641, -0.3170020878314972, 0.08266125619411469, 0.3344714641571045, -0.1391277313232422, -0.04498971998691559, -0.1232139840722084, 0.1700250655412674, 3.8659272831864655e-06, -0.18855613470077515, 0.19473616778850555, -0.16821804642677307, 0.08585585653781891, -0.09548326581716537, 0.22986888885498047, 0.1341799944639206, 0.27756619453430176, 0.1789838820695877, 0.0026141959242522717, -0.1034478098154068, -0.1292036920785904, -0.03205007687211037, -0.17746849358081818, 0.10679324716329575, 0.08675500005483627, -0.016283240169286728, -0.27780216932296753, 0.15840701758861542, -0.18142659962177277, 0.037828389555215836, 0.1951737403869629, -0.005467303562909365, -0.1556488275527954, 0.10160806775093079, 0.07405799627304077, 0.12622477114200592, 0.14153902232646942, 0.2410261183977127, 0.1064448133111, -0.05856301635503769, -0.2093152552843094, -0.3712158203125, -0.28078654408454895, -0.29237210750579834, 0.07314715534448624, 0.07579115033149719, 0.07012574374675751, -0.22134821116924286, 0.10632887482643127, -0.03255683183670044, -0.005002585705369711, 0.13400712609291077, 0.1851666271686554, -0.1311156153678894, 0.26889321208000183, 0.06663777679204941, 0.13890863955020905, -0.26660558581352234, 0.047117650508880615, -0.2510473132133484, -0.0033630235120654106, -0.07555798441171646, 0.06117410585284233, -0.10013170540332794, 0.005137777421623468, 0.15460248291492462, -0.12314819544553757, -0.10679629445075989, -0.038120441138744354, 0.08858334273099899, -0.07058339565992355, 0.023990359157323837, -0.04729054495692253, -0.011925619095563889, -0.3761134743690491, -0.1392166018486023, 0.09418871998786926, -0.192217618227005, 0.0027061491273343563, 0.11081220954656601, -0.2571496367454529, -0.21337279677391052, 0.1307751089334488, 0.09066452831029892, 0.04145045205950737, -0.030655741691589355, 0.14529134333133698, -0.1935947984457016, 0.09005743265151978, 0.10593076050281525, -0.035330552607774734, -0.23098324239253998, 0.1402823030948639, 0.044312216341495514, 0.042432960122823715, 0.052030596882104874, 0.01714811474084854, -0.06153464317321777, 0.019760912284255028, -0.0411241315305233, 0.05683206021785736, -0.019533267244696617, -0.18927550315856934, 0.37089991569519043, 0.12549801170825958, -0.11599117517471313, -0.11144434660673141, 0.1038445457816124, 0.2532314956188202, 0.12589429318904877, 0.0818759873509407, -0.24008242785930634, -0.029805151745676994, -0.18117061257362366, 0.20703040063381195, -0.36827173829078674, -0.028708167374134064, 0.17514707148075104, -0.09503288567066193, 0.4662557542324066, -0.2543400824069977, 0.10222329199314117, 0.12845206260681152, -0.07875700294971466, 0.29225873947143555, -0.2235994189977646, -0.06822960823774338, -0.08116970956325531, 0.07562364637851715, -0.1066848635673523, -0.18742704391479492, 0.28789660334587097, -0.05551764369010925, -0.19248487055301666, 0.003746155882254243, -0.15811365842819214, 0.003213009098544717, 0.14851777255535126, 0.0022100803907960653, 0.07785636931657791, 0.20017334818840027, -0.2113768309354782, -0.02255641669034958, 0.015676485374569893, -0.09225570410490036, 0.13824903964996338, -0.04401745647192001, -0.11265165358781815, 0.11356661468744278, 0.24593934416770935, 0.17141985893249512, -0.17319336533546448, 0.21517722308635712, -0.1075449213385582, -0.0800129845738411, 0.028742896392941475, 0.2635515034198761, 0.21679501235485077, 0.3551464378833771, -0.12469454109668732, 0.03296434506773949, -0.23692387342453003, 0.007780037354677916, 0.2730048894882202, 0.15105220675468445, -0.17961613833904266, -0.1128530353307724, -0.3407931327819824, 0.13061578571796417, -0.06372811645269394, -0.1867201179265976, -0.13390950858592987, 0.16304004192352295, -0.03550327941775322, 0.2874612510204315, 0.15818700194358826, 0.22242052853107452, -0.16858094930648804, -0.11702083051204681, 0.10889699310064316, 0.3012569844722748, 0.07462568581104279, -0.2231236696243286, -0.39073291420936584, -0.1379568725824356, -0.009583666920661926, 0.054171476513147354, 0.328704833984375, -0.12121175974607468, 0.05613282695412636, 0.1559772491455078, -0.26734060049057007, -0.2582733929157257, 0.0015034354291856289, 0.23355111479759216, 0.017110733315348625, 0.08108063787221909, -0.26848068833351135, 0.011527055874466896, 0.04318093881011009, 0.040430355817079544, -0.006105190142989159, 0.03034873493015766, -0.08745978027582169, 0.15092216432094574, -0.2939358353614807, -0.0007056678296066821, -0.15156131982803345, -0.13221867382526398, 0.28628161549568176, 0.04647056758403778, -0.20534613728523254, 0.09632355719804764, -0.1461438089609146, -0.03292050585150719, 0.18359655141830444, -0.13178667426109314, 0.3105151653289795, 0.2568223476409912, -0.1381024867296219, 0.042014822363853455, 0.062059689313173294, -0.06115863472223282, 0.0753394067287445, 0.00794497411698103, -0.03210842236876488, 0.02287115715444088, -0.06855098158121109, 0.10024448484182358, 0.0702601820230484, -0.029555829241871834, 0.0044076647609472275, -0.10216883569955826, -0.07271093875169754, 0.014601413160562515, 0.08319202810525894, -0.17330709099769592, 0.13563592731952667, -0.1325659602880478, 0.1861128956079483, -0.23427362740039825, 0.021587980911135674, 0.16610226035118103, 0.009598509408533573, -0.13407860696315765, -0.02419527806341648, 0.10206300020217896, -0.02541450783610344, 0.022186096757650375, -0.10514906793832779, 0.1794978678226471, 0.12093246728181839, -0.017306482419371605, 0.03269220516085625, 0.06573911756277084, -0.10978638380765915, 0.20095400512218475, 0.15673649311065674, -0.15612240135669708, -0.05657242611050606, -0.14331640303134918, 0.10706112533807755, -0.2009027600288391, 0.03400241583585739, 0.003112920094281435, 0.0030542032327502966, 0.015924030914902687, 0.032856836915016174, -0.1450713872909546, -0.09430263191461563, 0.01894802413880825, -0.13520725071430206, 0.015131530351936817, 0.28678572177886963, -0.037063706666231155, -0.00034716984373517334, 0.17603334784507751, -0.0905786082148552, 0.02979651466012001, -0.0900602787733078, -0.059589676558971405, 0.2286488115787506, -0.03880402073264122, 0.012610772624611855, 0.07069291919469833, -0.08361434936523438, 0.15086349844932556, -0.2353803664445877, 0.08121620863676071, -0.20256821811199188, -0.1742362529039383, -0.1101238951086998, -0.08989182114601135, 0.2176729440689087, -0.011244410648941994, 0.01780656911432743, -0.0763198733329773, 0.05412779375910759, 0.0760316327214241, -0.10389278829097748, 0.04756615683436394, -0.0539020411670208, 0.12055663764476776, 0.0828099176287651, -0.09535098820924759, -0.18113328516483307, -0.03806587681174278, -0.11587172746658325, 0.1694817990064621, 0.04608885943889618, -0.05231132730841637, 0.05089503526687622, 0.11563804000616074, -0.04117904230952263, -0.08571407198905945, -0.02090156264603138, -0.19539709389209747, 0.016300659626722336, -0.14823685586452484, -0.05885510891675949, -0.11218655109405518, -0.02939370833337307, 0.06652844697237015, -0.05349872261285782, -0.016048317775130272, 0.15208683907985687, -0.13169319927692413, 0.02241325192153454, 0.05745284631848335, -0.18315859138965607, -0.019397111609578133, 0.04823045805096626, -0.22966434061527252, -0.06404300779104233, 0.2942308783531189, -0.22609339654445648, 0.3127274811267853, -0.1478135883808136, 0.1225515753030777, -0.18121026456356049, -0.12101361900568008, 0.12916360795497894, -0.056892264634370804, -0.020623425021767616, -0.1780092716217041, -0.05427452549338341, 0.09180277585983276, 0.1428270787000656, 0.1106802448630333, -0.028299709782004356, -0.26976287364959717, -0.3827032148838043, -0.0009544533095322549, 0.03381882980465889, -0.028576575219631195, -0.038287095725536346, -0.11616488546133041, -0.08940404653549194, -0.2841047942638397, 0.38091716170310974, 0.05667892470955849, 0.14021243155002594, 0.17518886923789978, -0.008055564947426319, -0.034400541335344315, 0.21538028120994568, 0.08904112875461578, -0.022584693506360054, 0.04633096605539322, 0.05266660079360008, 0.037722114473581314, 0.061149802058935165, -0.005263289902359247, -0.03646973893046379, 0.2294226884841919, 0.09059229493141174, 0.14428909122943878, 0.22805646061897278, -0.05782611295580864, -0.04567863419651985, -0.19224537909030914, 0.2246498316526413, -0.16932056844234467, 0.1220785528421402, -0.16658371686935425, 0.030966205522418022, 0.1758154183626175, 0.047953277826309204, 0.07953780144453049, -0.256603866815567, 0.09101027995347977, 0.02520461194217205, 0.018629880622029305, 0.0019090240821242332, -0.09073957055807114, 0.07545962184667587, 0.03395678102970123, 0.09136861562728882, 0.009408536367118359, 0.02509581297636032, 0.15360954403877258, 0.18939410150051117, -0.09802965819835663, 0.04067403823137283, -0.1362660974264145, 0.08114302903413773, -0.13871531188488007, -0.08817844837903976, -0.057139940559864044, 0.049026861786842346, -0.010960265062749386, 0.06354338675737381, -0.13483324646949768, -0.18243783712387085, 0.02536485530436039, -0.007713411934673786, -0.025234010070562363, 0.0656665489077568, -0.11970005929470062, 0.12922294437885284, -0.09855058044195175, -0.01558851357549429, 0.10471491515636444, 0.03474674001336098, 0.0688997134566307, 0.04936710000038147, 0.018646234646439552, -0.03455840423703194, 0.07590171694755554, 0.012605427764356136, 0.04859858751296997, -0.04134581610560417, 0.05520026758313179, -0.05660654976963997, -0.10826440155506134, 0.1981191635131836, -0.08426398783922195, 0.22544753551483154, 0.09868299961090088, 0.15433314442634583, 0.08362045139074326, 0.14418673515319824, 0.09121940284967422, 4.447998435352929e-05, -0.13374081254005432, 0.02944374643266201, -0.10350697487592697, -0.23993463814258575, 0.0761139914393425, -0.051286909729242325, -0.022157011553645134, 0.06102549284696579, 0.023050952702760696, 0.24201561510562897, -0.03638651221990585, 0.2688925266265869, 0.0438678041100502, -0.04227137193083763, 0.06220852583646774, -0.15702258050441742, 0.21731309592723846, -0.06483376771211624, -0.21185338497161865, -0.03964012861251831, 0.01815374195575714, -0.07239843904972076, 0.11508690565824509, -0.06965827196836472, 0.015819845721125603, -0.005104385782033205, -0.1515267938375473, -0.00210930104367435, -0.21486245095729828, -0.15912918746471405, 0.24124477803707123, -0.004037823062390089, -0.1817755103111267, -0.3610760569572449, 0.097236767411232, -0.19142375886440277, 0.051921382546424866, -0.03898946940898895, 0.05486346036195755, 0.004417931195348501, 0.0008512318599969149, 0.0952572301030159, -0.08155670762062073, -0.125900998711586, -0.1219811886548996, 0.0570884570479393, -0.12380543351173401, -0.1754201054573059, 0.0214226096868515, 0.1499127447605133, -0.0790720134973526, -0.35361841320991516, -0.025044091045856476, -0.038820669054985046, -0.06111898645758629, -0.042069412767887115, 0.05340336635708809, -0.014346711337566376, 0.2962525188922882, 0.45034608244895935, -0.1380617469549179, 0.12460228055715561, 0.10063201189041138, -0.02877800352871418, -0.15528137981891632, 0.19735445082187653, -0.07922273129224777, 0.12520642578601837, 0.02082441933453083, -0.16520996391773224, -0.031974587589502335, -0.21223434805870056, -0.06128637492656708, -0.07290150225162506, -0.05001065880060196, 